<?xml version="1.0"?>
<opencv_storage>
<cascade>
  <stageType>BOOST</stageType>
  <featureType>HAAR</featureType>
  <height>20</height>
  <width>60</width>
  <stageParams>
    <boostType>GAB</boostType>
    <minHitRate>9.9500000476837158e-01</minHitRate>
    <maxFalseAlarm>5.0000000000000000e-01</maxFalseAlarm>
    <weightTrimRate>9.4999999999999996e-01</weightTrimRate>
    <maxDepth>1</maxDepth>
    <maxWeakCount>100</maxWeakCount></stageParams>
  <featureParams>
    <maxCatCount>0</maxCatCount>
    <featSize>1</featSize>
    <mode>ALL</mode></featureParams>
  <stageNum>20</stageNum>
  <stages>
    <!-- stage 0 -->
    <_>
      <maxWeakCount>7</maxWeakCount>
      <stageThreshold>-1.0616390705108643e+00</stageThreshold>
      <weakClassifiers>
        <_>
          <internalNodes>
            0 -1 116 4.3085205554962158e-01</internalNodes>
          <leafValues>
            -7.4245941638946533e-01 8.4639495611190796e-01</leafValues></_>
        <_>
          <internalNodes>
            0 -1 180 9.9969781935214996e-02</internalNodes>
          <leafValues>
            -3.6596319079399109e-01 9.3935906887054443e-01</leafValues></_>
        <_>
          <internalNodes>
            0 -1 64 4.2201799154281616e-01</internalNodes>
          <leafValues>
            -3.2677200436592102e-01 8.0517053604125977e-01</leafValues></_>
        <_>
          <internalNodes>
            0 -1 235 2.3896023631095886e-03</internalNodes>
          <leafValues>
            3.4199279546737671e-01 -6.6372680664062500e-01</leafValues></_>
        <_>
          <internalNodes>
            0 -1 230 2.1847384050488472e-02</internalNodes>
          <leafValues>
            -3.6851173639297485e-01 5.9425288438796997e-01</leafValues></_>
        <_>
          <internalNodes>
            0 -1 143 1.2898785062134266e-02</internalNodes>
          <leafValues>
            -2.7774882316589355e-01 7.3874920606613159e-01</leafValues></_>
        <_>
          <internalNodes>
            0 -1 38 -1.3408813625574112e-02</internalNodes>
          <leafValues>
            7.7186375856399536e-01 -2.8494134545326233e-01</leafValues></_></weakClassifiers></_>
    <!-- stage 1 -->
    <_>
      <maxWeakCount>8</maxWeakCount>
      <stageThreshold>-1.2369706630706787e+00</stageThreshold>
      <weakClassifiers>
        <_>
          <internalNodes>
            0 -1 147 4.8473799228668213e-01</internalNodes>
          <leafValues>
            -6.1165046691894531e-01 8.1500869989395142e-01</leafValues></_>
        <_>
          <internalNodes>
            0 -1 145 -3.8116431096568704e-04</internalNodes>
          <leafValues>
            5.7833772897720337e-01 -3.4826532006263733e-01</leafValues></_>
        <_>
          <internalNodes>
            0 -1 195 1.3453537598252296e-02</internalNodes>
          <leafValues>
            -5.2194821834564209e-01 3.5282090306282043e-01</leafValues></_>
        <_>
          <internalNodes>
            0 -1 244 2.0884903147816658e-02</internalNodes>
          <leafValues>
            -3.5255131125450134e-01 4.4089451432228088e-01</leafValues></_>
        <_>
          <internalNodes>
            0 -1 168 -3.3988186623901129e-04</internalNodes>
          <leafValues>
            5.4179000854492188e-01 -3.4971210360527039e-01</leafValues></_>
        <_>
          <internalNodes>
            0 -1 62 -1.1243590712547302e-01</internalNodes>
          <leafValues>
            7.8203111886978149e-01 -1.7247384786605835e-01</leafValues></_>
        <_>
          <internalNodes>
            0 -1 13 7.6444590091705322e-01</internalNodes>
          <leafValues>
            -2.6227086782455444e-01 6.7792141437530518e-01</leafValues></_>
        <_>
          <internalNodes>
            0 -1 72 -5.1957729738205671e-04</internalNodes>
          <leafValues>
            5.0713241100311279e-01 -2.4845416843891144e-01</leafValues></_></weakClassifiers></_>
    <!-- stage 2 -->
    <_>
      <maxWeakCount>10</maxWeakCount>
      <stageThreshold>-1.5354232788085938e+00</stageThreshold>
      <weakClassifiers>
        <_>
          <internalNodes>
            0 -1 206 -9.7836449742317200e-02</internalNodes>
          <leafValues>
            5.4738330841064453e-01 -6.1412358283996582e-01</leafValues></_>
        <_>
          <internalNodes>
            0 -1 177 5.4825979471206665e-01</internalNodes>
          <leafValues>
            -3.1426814198493958e-01 6.8831485509872437e-01</leafValues></_>
        <_>
          <internalNodes>
            0 -1 190 -2.4367736652493477e-02</internalNodes>
          <leafValues>
            6.6968721151351929e-01 -2.2984994947910309e-01</leafValues></_>
        <_>
          <internalNodes>
            0 -1 160 -9.0769454836845398e-03</internalNodes>
          <leafValues>
            5.1719915866851807e-01 -3.2986754179000854e-01</leafValues></_>
        <_>
          <internalNodes>
            0 -1 162 -2.0738400053232908e-04</internalNodes>
          <leafValues>
            4.2448100447654724e-01 -3.3562719821929932e-01</leafValues></_>
        <_>
          <internalNodes>
            0 -1 28 -1.8431397620588541e-03</internalNodes>
          <leafValues>
            3.5925164818763733e-01 -3.4211590886116028e-01</leafValues></_>
        <_>
          <internalNodes>
            0 -1 47 1.4499530196189880e-02</internalNodes>
          <leafValues>
            -2.1962156891822815e-01 5.9717452526092529e-01</leafValues></_>
        <_>
          <internalNodes>
            0 -1 166 1.4352388679981232e-01</internalNodes>
          <leafValues>
            -1.5542195737361908e-01 8.0405282974243164e-01</leafValues></_>
        <_>
          <internalNodes>
            0 -1 172 3.1915925443172455e-02</internalNodes>
          <leafValues>
            -2.5093877315521240e-01 5.9647256135940552e-01</leafValues></_>
        <_>
          <internalNodes>
            0 -1 201 9.4118696870282292e-04</internalNodes>
          <leafValues>
            -2.9236766695976257e-01 4.0439185500144958e-01</leafValues></_></weakClassifiers></_>
    <!-- stage 3 -->
    <_>
      <maxWeakCount>13</maxWeakCount>
      <stageThreshold>-1.4000989198684692e+00</stageThreshold>
      <weakClassifiers>
        <_>
          <internalNodes>
            0 -1 141 6.5022909641265869e-01</internalNodes>
          <leafValues>
            -4.2253521084785461e-01 6.3241106271743774e-01</leafValues></_>
        <_>
          <internalNodes>
            0 -1 218 6.0777347534894943e-03</internalNodes>
          <leafValues>
            -4.1240486502647400e-01 3.6337605118751526e-01</leafValues></_>
        <_>
          <internalNodes>
            0 -1 10 2.1637710928916931e-01</internalNodes>
          <leafValues>
            -2.6670435070991516e-01 5.2952462434768677e-01</leafValues></_>
        <_>
          <internalNodes>
            0 -1 152 -2.0909206941723824e-03</internalNodes>
          <leafValues>
            4.5901709794998169e-01 -3.3223822712898254e-01</leafValues></_>
        <_>
          <internalNodes>
            0 -1 277 -6.0941893607378006e-03</internalNodes>
          <leafValues>
            -7.4744176864624023e-01 1.9033938646316528e-01</leafValues></_>
        <_>
          <internalNodes>
            0 -1 122 -3.2713779364712536e-04</internalNodes>
          <leafValues>
            4.0277662873268127e-01 -2.9834014177322388e-01</leafValues></_>
        <_>
          <internalNodes>
            0 -1 265 2.9459685087203979e-02</internalNodes>
          <leafValues>
            -2.0413070917129517e-01 7.3223978281021118e-01</leafValues></_>
        <_>
          <internalNodes>
            0 -1 268 -1.6053130384534597e-03</internalNodes>
          <leafValues>
            -7.0399439334869385e-01 2.0875477790832520e-01</leafValues></_>
        <_>
          <internalNodes>
            0 -1 102 -7.1538006886839867e-04</internalNodes>
          <leafValues>
            4.5114323496818542e-01 -2.8411176800727844e-01</leafValues></_>
        <_>
          <internalNodes>
            0 -1 84 -3.5107374424114823e-04</internalNodes>
          <leafValues>
            5.2805119752883911e-01 -2.5853136181831360e-01</leafValues></_>
        <_>
          <internalNodes>
            0 -1 159 -3.9933109655976295e-03</internalNodes>
          <leafValues>
            3.7569233775138855e-01 -3.5465058684349060e-01</leafValues></_>
        <_>
          <internalNodes>
            0 -1 245 5.1469784229993820e-02</internalNodes>
          <leafValues>
            -2.3495258390903473e-01 5.2672094106674194e-01</leafValues></_>
        <_>
          <internalNodes>
            0 -1 224 7.4670270085334778e-02</internalNodes>
          <leafValues>
            -1.9058641791343689e-01 8.4933143854141235e-01</leafValues></_></weakClassifiers></_>
    <!-- stage 4 -->
    <_>
      <maxWeakCount>10</maxWeakCount>
      <stageThreshold>-1.2900391817092896e+00</stageThreshold>
      <weakClassifiers>
        <_>
          <internalNodes>
            0 -1 222 2.7705125510692596e-02</internalNodes>
          <leafValues>
            -6.1807578802108765e-01 3.9803439378738403e-01</leafValues></_>
        <_>
          <internalNodes>
            0 -1 132 -5.9022102504968643e-04</internalNodes>
          <leafValues>
            4.0338838100433350e-01 -3.6634102463722229e-01</leafValues></_>
        <_>
          <internalNodes>
            0 -1 210 3.2716984860599041e-03</internalNodes>
          <leafValues>
            -4.7014203667640686e-01 3.0086919665336609e-01</leafValues></_>
        <_>
          <internalNodes>
            0 -1 170 -9.8989182151854038e-04</internalNodes>
          <leafValues>
            3.4805986285209656e-01 -3.5710558295249939e-01</leafValues></_>
        <_>
          <internalNodes>
            0 -1 178 1.6861197352409363e-01</internalNodes>
          <leafValues>
            -2.6028719544410706e-01 5.5055606365203857e-01</leafValues></_>
        <_>
          <internalNodes>
            0 -1 203 2.2114166989922523e-02</internalNodes>
          <leafValues>
            -2.9640018939971924e-01 4.8767381906509399e-01</leafValues></_>
        <_>
          <internalNodes>
            0 -1 271 9.8978642199654132e-05</internalNodes>
          <leafValues>
            1.2843301892280579e-01 -7.1160191297531128e-01</leafValues></_>
        <_>
          <internalNodes>
            0 -1 273 7.6348665170371532e-03</internalNodes>
          <leafValues>
            1.4198952913284302e-01 -6.7834746837615967e-01</leafValues></_>
        <_>
          <internalNodes>
            0 -1 161 -6.8258242681622505e-03</internalNodes>
          <leafValues>
            -8.4657281637191772e-01 1.1374536901712418e-01</leafValues></_>
        <_>
          <internalNodes>
            0 -1 228 7.0606695953756571e-04</internalNodes>
          <leafValues>
            -3.2196551561355591e-01 3.5979431867599487e-01</leafValues></_></weakClassifiers></_>
    <!-- stage 5 -->
    <_>
      <maxWeakCount>11</maxWeakCount>
      <stageThreshold>-8.9220654964447021e-01</stageThreshold>
      <weakClassifiers>
        <_>
          <internalNodes>
            0 -1 155 -9.8005903419107199e-04</internalNodes>
          <leafValues>
            3.3248406648635864e-01 -5.0489509105682373e-01</leafValues></_>
        <_>
          <internalNodes>
            0 -1 51 3.7631082534790039e-01</internalNodes>
          <leafValues>
            -2.2720438241958618e-01 6.9989717006683350e-01</leafValues></_>
        <_>
          <internalNodes>
            0 -1 130 -1.4969415497034788e-03</internalNodes>
          <leafValues>
            4.5211982727050781e-01 -3.0746567249298096e-01</leafValues></_>
        <_>
          <internalNodes>
            0 -1 196 1.3194149732589722e-01</internalNodes>
          <leafValues>
            -1.2844571471214294e-01 6.9178426265716553e-01</leafValues></_>
        <_>
          <internalNodes>
            0 -1 200 -7.0782795548439026e-02</internalNodes>
          <leafValues>
            4.8001489043235779e-01 -3.4623655676841736e-01</leafValues></_>
        <_>
          <internalNodes>
            0 -1 276 -6.5219067037105560e-03</internalNodes>
          <leafValues>
            -9.4066596031188965e-01 1.7563875019550323e-01</leafValues></_>
        <_>
          <internalNodes>
            0 -1 136 -3.1024159397929907e-04</internalNodes>
          <leafValues>
            3.7802496552467346e-01 -3.3087849617004395e-01</leafValues></_>
        <_>
          <internalNodes>
            0 -1 103 -6.8236415972933173e-04</internalNodes>
          <leafValues>
            4.2953464388847351e-01 -2.8835630416870117e-01</leafValues></_>
        <_>
          <internalNodes>
            0 -1 188 1.1371894180774689e-01</internalNodes>
          <leafValues>
            -2.0117947459220886e-01 5.5407565832138062e-01</leafValues></_>
        <_>
          <internalNodes>
            0 -1 65 -5.4079713299870491e-03</internalNodes>
          <leafValues>
            -7.2543591260910034e-01 1.6541232168674469e-01</leafValues></_>
        <_>
          <internalNodes>
            0 -1 125 -4.9849221250042319e-04</internalNodes>
          <leafValues>
            3.9250066876411438e-01 -2.9128143191337585e-01</leafValues></_></weakClassifiers></_>
    <!-- stage 6 -->
    <_>
      <maxWeakCount>17</maxWeakCount>
      <stageThreshold>-7.8390175104141235e-01</stageThreshold>
      <weakClassifiers>
        <_>
          <internalNodes>
            0 -1 243 5.1011450588703156e-02</internalNodes>
          <leafValues>
            -4.0139210224151611e-01 3.8557994365692139e-01</leafValues></_>
        <_>
          <internalNodes>
            0 -1 163 -4.9416732508689165e-04</internalNodes>
          <leafValues>
            3.1532648205757141e-01 -4.3196144700050354e-01</leafValues></_>
        <_>
          <internalNodes>
            0 -1 208 2.2206064313650131e-03</internalNodes>
          <leafValues>
            -4.6493020653724670e-01 2.2050401568412781e-01</leafValues></_>
        <_>
          <internalNodes>
            0 -1 66 3.1219697557389736e-03</internalNodes>
          <leafValues>
            -3.3860996365547180e-01 3.3449688553810120e-01</leafValues></_>
        <_>
          <internalNodes>
            0 -1 250 -5.7617563288658857e-04</internalNodes>
          <leafValues>
            1.5002919733524323e-01 -5.6765264272689819e-01</leafValues></_>
        <_>
          <internalNodes>
            0 -1 55 -2.8167007258161902e-04</internalNodes>
          <leafValues>
            5.0325167179107666e-01 -1.9113448262214661e-01</leafValues></_>
        <_>
          <internalNodes>
            0 -1 186 -1.5220791101455688e-02</internalNodes>
          <leafValues>
            6.3463127613067627e-01 -1.7236280441284180e-01</leafValues></_>
        <_>
          <internalNodes>
            0 -1 69 -1.0438253730535507e-01</internalNodes>
          <leafValues>
            6.6801267862319946e-01 -1.5232796967029572e-01</leafValues></_>
        <_>
          <internalNodes>
            0 -1 261 3.9492905139923096e-02</internalNodes>
          <leafValues>
            -2.0588999986648560e-01 5.5531674623489380e-01</leafValues></_>
        <_>
          <internalNodes>
            0 -1 44 4.9660247750580311e-03</internalNodes>
          <leafValues>
            -2.3729218542575836e-01 4.1539195179939270e-01</leafValues></_>
        <_>
          <internalNodes>
            0 -1 197 1.0909123811870813e-03</internalNodes>
          <leafValues>
            -3.0466026067733765e-01 3.3611884713172913e-01</leafValues></_>
        <_>
          <internalNodes>
            0 -1 213 4.5144069008529186e-04</internalNodes>
          <leafValues>
            -4.0472751855850220e-01 2.3127751052379608e-01</leafValues></_>
        <_>
          <internalNodes>
            0 -1 73 -2.8990974649786949e-02</internalNodes>
          <leafValues>
            -8.9095056056976318e-01 1.1141853779554367e-01</leafValues></_>
        <_>
          <internalNodes>
            0 -1 204 1.3464435935020447e-01</internalNodes>
          <leafValues>
            -1.8709968030452728e-01 7.3607540130615234e-01</leafValues></_>
        <_>
          <internalNodes>
            0 -1 251 6.7592144478112459e-04</internalNodes>
          <leafValues>
            1.8719820678234100e-01 -6.5429621934890747e-01</leafValues></_>
        <_>
          <internalNodes>
            0 -1 40 -2.3488975130021572e-03</internalNodes>
          <leafValues>
            4.3900316953659058e-01 -2.3440457880496979e-01</leafValues></_>
        <_>
          <internalNodes>
            0 -1 14 -1.4391782879829407e-01</internalNodes>
          <leafValues>
            7.6058799028396606e-01 -1.2652352452278137e-01</leafValues></_></weakClassifiers></_>
    <!-- stage 7 -->
    <_>
      <maxWeakCount>9</maxWeakCount>
      <stageThreshold>-9.2451179027557373e-01</stageThreshold>
      <weakClassifiers>
        <_>
          <internalNodes>
            0 -1 192 -5.3376503288745880e-02</internalNodes>
          <leafValues>
            4.6094945073127747e-01 -4.7343567013740540e-01</leafValues></_>
        <_>
          <internalNodes>
            0 -1 99 8.8681578636169434e-03</internalNodes>
          <leafValues>
            -3.1177535653114319e-01 5.4577040672302246e-01</leafValues></_>
        <_>
          <internalNodes>
            0 -1 262 -1.2511356908362359e-04</internalNodes>
          <leafValues>
            2.4587219953536987e-01 -5.5906599760055542e-01</leafValues></_>
        <_>
          <internalNodes>
            0 -1 39 -1.4795461297035217e-01</internalNodes>
          <leafValues>
            5.7114058732986450e-01 -2.0501169562339783e-01</leafValues></_>
        <_>
          <internalNodes>
            0 -1 105 -2.8292359784245491e-03</internalNodes>
          <leafValues>
            5.9977447986602783e-01 -2.7135750651359558e-01</leafValues></_>
        <_>
          <internalNodes>
            0 -1 16 1.2538205191958696e-04</internalNodes>
          <leafValues>
            2.1833130717277527e-01 -8.0031305551528931e-01</leafValues></_>
        <_>
          <internalNodes>
            0 -1 18 -1.0200181975960732e-02</internalNodes>
          <leafValues>
            4.4105663895606995e-01 -3.0366951227188110e-01</leafValues></_>
        <_>
          <internalNodes>
            0 -1 221 4.7510623931884766e-02</internalNodes>
          <leafValues>
            -2.3726521432399750e-01 4.3437033891677856e-01</leafValues></_>
        <_>
          <internalNodes>
            0 -1 111 -6.2059182673692703e-03</internalNodes>
          <leafValues>
            4.6970990300178528e-01 -2.2904998064041138e-01</leafValues></_></weakClassifiers></_>
    <!-- stage 8 -->
    <_>
      <maxWeakCount>11</maxWeakCount>
      <stageThreshold>-1.0739448070526123e+00</stageThreshold>
      <weakClassifiers>
        <_>
          <internalNodes>
            0 -1 127 -6.1979861930012703e-03</internalNodes>
          <leafValues>
            4.3646410107612610e-01 -3.5214212536811829e-01</leafValues></_>
        <_>
          <internalNodes>
            0 -1 67 -9.5656454563140869e-02</internalNodes>
          <leafValues>
            6.1888277530670166e-01 -2.3107081651687622e-01</leafValues></_>
        <_>
          <internalNodes>
            0 -1 95 -2.1432349458336830e-02</internalNodes>
          <leafValues>
            6.8179410696029663e-01 -2.0908753573894501e-01</leafValues></_>
        <_>
          <internalNodes>
            0 -1 88 6.0200830921530724e-03</internalNodes>
          <leafValues>
            -2.8352525830268860e-01 3.8476270437240601e-01</leafValues></_>
        <_>
          <internalNodes>
            0 -1 8 1.2606714153662324e-04</internalNodes>
          <leafValues>
            1.7413806915283203e-01 -7.7375370264053345e-01</leafValues></_>
        <_>
          <internalNodes>
            0 -1 225 1.3687054160982370e-03</internalNodes>
          <leafValues>
            -3.5652017593383789e-01 3.1254777312278748e-01</leafValues></_>
        <_>
          <internalNodes>
            0 -1 205 7.2881946107372642e-04</internalNodes>
          <leafValues>
            -3.9365914463996887e-01 3.2394352555274963e-01</leafValues></_>
        <_>
          <internalNodes>
            0 -1 255 -1.0380702588008717e-04</internalNodes>
          <leafValues>
            -7.4055230617523193e-01 1.5960931777954102e-01</leafValues></_>
        <_>
          <internalNodes>
            0 -1 254 1.2095511192455888e-04</internalNodes>
          <leafValues>
            1.8202987313270569e-01 -5.2950102090835571e-01</leafValues></_>
        <_>
          <internalNodes>
            0 -1 241 -1.5581431216560304e-04</internalNodes>
          <leafValues>
            -5.0539010763168335e-01 1.7990896105766296e-01</leafValues></_>
        <_>
          <internalNodes>
            0 -1 31 -3.6347438581287861e-03</internalNodes>
          <leafValues>
            -6.1876565217971802e-01 1.6277538239955902e-01</leafValues></_></weakClassifiers></_>
    <!-- stage 9 -->
    <_>
      <maxWeakCount>15</maxWeakCount>
      <stageThreshold>-1.1890403032302856e+00</stageThreshold>
      <weakClassifiers>
        <_>
          <internalNodes>
            0 -1 104 -9.9643191788345575e-04</internalNodes>
          <leafValues>
            3.7261146306991577e-01 -3.8302752375602722e-01</leafValues></_>
        <_>
          <internalNodes>
            0 -1 252 1.2572580948472023e-02</internalNodes>
          <leafValues>
            -3.8606715202331543e-01 2.7598112821578979e-01</leafValues></_>
        <_>
          <internalNodes>
            0 -1 182 7.0827128365635872e-03</internalNodes>
          <leafValues>
            -2.3523393273353577e-01 4.3965184688568115e-01</leafValues></_>
        <_>
          <internalNodes>
            0 -1 11 -3.9016628265380859e-01</internalNodes>
          <leafValues>
            5.9445583820343018e-01 -2.2825694084167480e-01</leafValues></_>
        <_>
          <internalNodes>
            0 -1 209 1.8537575379014015e-03</internalNodes>
          <leafValues>
            -3.6399269104003906e-01 2.9225054383277893e-01</leafValues></_>
        <_>
          <internalNodes>
            0 -1 26 1.2108972296118736e-02</internalNodes>
          <leafValues>
            -3.0939474701881409e-01 3.5301667451858521e-01</leafValues></_>
        <_>
          <internalNodes>
            0 -1 175 1.1352622823324054e-04</internalNodes>
          <leafValues>
            -4.6070259809494019e-01 2.1499407291412354e-01</leafValues></_>
        <_>
          <internalNodes>
            0 -1 75 -6.1303353868424892e-04</internalNodes>
          <leafValues>
            4.5986145734786987e-01 -2.1958874166011810e-01</leafValues></_>
        <_>
          <internalNodes>
            0 -1 20 3.9811048191040754e-04</internalNodes>
          <leafValues>
            1.6339765489101410e-01 -5.2948468923568726e-01</leafValues></_>
        <_>
          <internalNodes>
            0 -1 138 8.4084505215287209e-04</internalNodes>
          <leafValues>
            1.5063999593257904e-01 -6.4277017116546631e-01</leafValues></_>
        <_>
          <internalNodes>
            0 -1 5 -8.1427888944745064e-03</internalNodes>
          <leafValues>
            5.6661826372146606e-01 -1.8299201130867004e-01</leafValues></_>
        <_>
          <internalNodes>
            0 -1 45 2.0018994808197021e-02</internalNodes>
          <leafValues>
            -2.6101535558700562e-01 3.6977711319923401e-01</leafValues></_>
        <_>
          <internalNodes>
            0 -1 232 2.5862876791507006e-03</internalNodes>
          <leafValues>
            -3.4266778826713562e-01 2.4289779365062714e-01</leafValues></_>
        <_>
          <internalNodes>
            0 -1 61 2.9276264831423759e-03</internalNodes>
          <leafValues>
            1.3837811350822449e-01 -6.3930028676986694e-01</leafValues></_>
        <_>
          <internalNodes>
            0 -1 32 -1.4118103682994843e-01</internalNodes>
          <leafValues>
            3.7056478857994080e-01 -2.2833265364170074e-01</leafValues></_></weakClassifiers></_>
    <!-- stage 10 -->
    <_>
      <maxWeakCount>15</maxWeakCount>
      <stageThreshold>-1.1101801395416260e+00</stageThreshold>
      <weakClassifiers>
        <_>
          <internalNodes>
            0 -1 237 4.2639583349227905e-02</internalNodes>
          <leafValues>
            -3.9150944352149963e-01 3.5582822561264038e-01</leafValues></_>
        <_>
          <internalNodes>
            0 -1 156 -8.2867150194942951e-04</internalNodes>
          <leafValues>
            3.5414436459541321e-01 -3.0598872900009155e-01</leafValues></_>
        <_>
          <internalNodes>
            0 -1 181 2.2916106972843409e-03</internalNodes>
          <leafValues>
            -3.0716401338577271e-01 3.2602649927139282e-01</leafValues></_>
        <_>
          <internalNodes>
            0 -1 173 -6.7619554465636611e-04</internalNodes>
          <leafValues>
            4.8144862055778503e-01 -3.3130893111228943e-01</leafValues></_>
        <_>
          <internalNodes>
            0 -1 184 5.2677441999549046e-06</internalNodes>
          <leafValues>
            -4.3674975633621216e-01 3.0934160947799683e-01</leafValues></_>
        <_>
          <internalNodes>
            0 -1 118 6.8003428168594837e-03</internalNodes>
          <leafValues>
            -3.6545574665069580e-01 3.4992134571075439e-01</leafValues></_>
        <_>
          <internalNodes>
            0 -1 70 6.4930754888337106e-05</internalNodes>
          <leafValues>
            1.6360177099704742e-01 -5.6922215223312378e-01</leafValues></_>
        <_>
          <internalNodes>
            0 -1 68 -1.8559439340606332e-03</internalNodes>
          <leafValues>
            3.5625591874122620e-01 -2.4261572957038879e-01</leafValues></_>
        <_>
          <internalNodes>
            0 -1 3 -1.5130268875509501e-03</internalNodes>
          <leafValues>
            3.8360807299613953e-01 -1.8877251446247101e-01</leafValues></_>
        <_>
          <internalNodes>
            0 -1 234 -1.0309889330528677e-04</internalNodes>
          <leafValues>
            -4.4130975008010864e-01 1.9400724768638611e-01</leafValues></_>
        <_>
          <internalNodes>
            0 -1 248 -2.9296001885086298e-03</internalNodes>
          <leafValues>
            -7.3748904466629028e-01 1.3347096741199493e-01</leafValues></_>
        <_>
          <internalNodes>
            0 -1 74 2.3973268270492554e-01</internalNodes>
          <leafValues>
            -1.5648710727691650e-01 7.2692084312438965e-01</leafValues></_>
        <_>
          <internalNodes>
            0 -1 167 -7.7861934900283813e-02</internalNodes>
          <leafValues>
            3.5905477404594421e-01 -2.2482354938983917e-01</leafValues></_>
        <_>
          <internalNodes>
            0 -1 259 -1.2918506399728358e-04</internalNodes>
          <leafValues>
            2.2600647807121277e-01 -4.0743303298950195e-01</leafValues></_>
        <_>
          <internalNodes>
            0 -1 119 -8.4603403229266405e-04</internalNodes>
          <leafValues>
            3.9282348752021790e-01 -2.1967917680740356e-01</leafValues></_></weakClassifiers></_>
    <!-- stage 11 -->
    <_>
      <maxWeakCount>18</maxWeakCount>
      <stageThreshold>-1.2566748857498169e+00</stageThreshold>
      <weakClassifiers>
        <_>
          <internalNodes>
            0 -1 108 -7.2412507142871618e-04</internalNodes>
          <leafValues>
            2.8907331824302673e-01 -3.9768341183662415e-01</leafValues></_>
        <_>
          <internalNodes>
            0 -1 223 1.4855823246762156e-03</internalNodes>
          <leafValues>
            -3.5647132992744446e-01 2.6721635460853577e-01</leafValues></_>
        <_>
          <internalNodes>
            0 -1 199 1.3533120043575764e-02</internalNodes>
          <leafValues>
            -2.8662139177322388e-01 3.1651967763900757e-01</leafValues></_>
        <_>
          <internalNodes>
            0 -1 97 2.9307715594768524e-02</internalNodes>
          <leafValues>
            -2.8464147448539734e-01 3.7405920028686523e-01</leafValues></_>
        <_>
          <internalNodes>
            0 -1 17 -2.0796574652194977e-01</internalNodes>
          <leafValues>
            5.8401221036911011e-01 -2.3205502331256866e-01</leafValues></_>
        <_>
          <internalNodes>
            0 -1 220 4.8774000606499612e-04</internalNodes>
          <leafValues>
            -3.5701504349708557e-01 2.3182708024978638e-01</leafValues></_>
        <_>
          <internalNodes>
            0 -1 124 1.1343200504779816e-01</internalNodes>
          <leafValues>
            -3.5390275716781616e-01 2.4146485328674316e-01</leafValues></_>
        <_>
          <internalNodes>
            0 -1 117 -1.2171638663858175e-03</internalNodes>
          <leafValues>
            2.3515456914901733e-01 -4.2744258046150208e-01</leafValues></_>
        <_>
          <internalNodes>
            0 -1 2 1.9839429296553135e-04</internalNodes>
          <leafValues>
            1.5684258937835693e-01 -6.7751842737197876e-01</leafValues></_>
        <_>
          <internalNodes>
            0 -1 87 5.7566883042454720e-03</internalNodes>
          <leafValues>
            -3.3592250943183899e-01 2.3977236449718475e-01</leafValues></_>
        <_>
          <internalNodes>
            0 -1 100 -6.9471681490540504e-04</internalNodes>
          <leafValues>
            3.9201498031616211e-01 -2.0940434932708740e-01</leafValues></_>
        <_>
          <internalNodes>
            0 -1 227 2.3861689260229468e-04</internalNodes>
          <leafValues>
            -3.2945296168327332e-01 2.5065624713897705e-01</leafValues></_>
        <_>
          <internalNodes>
            0 -1 256 -2.2666102449875325e-04</internalNodes>
          <leafValues>
            -5.3026038408279419e-01 1.4703917503356934e-01</leafValues></_>
        <_>
          <internalNodes>
            0 -1 90 -3.0155708082020283e-03</internalNodes>
          <leafValues>
            5.4025423526763916e-01 -1.7967076599597931e-01</leafValues></_>
        <_>
          <internalNodes>
            0 -1 1 -2.1203045616857708e-04</internalNodes>
          <leafValues>
            -4.9434450268745422e-01 1.8753693997859955e-01</leafValues></_>
        <_>
          <internalNodes>
            0 -1 233 1.8933083629235625e-04</internalNodes>
          <leafValues>
            -3.7353453040122986e-01 1.9988925755023956e-01</leafValues></_>
        <_>
          <internalNodes>
            0 -1 153 -6.9774047005921602e-05</internalNodes>
          <leafValues>
            3.1724554300308228e-01 -2.9418638348579407e-01</leafValues></_>
        <_>
          <internalNodes>
            0 -1 129 -4.7669978812336922e-04</internalNodes>
          <leafValues>
            3.0062800645828247e-01 -3.0477863550186157e-01</leafValues></_></weakClassifiers></_>
    <!-- stage 12 -->
    <_>
      <maxWeakCount>16</maxWeakCount>
      <stageThreshold>-1.1585255861282349e+00</stageThreshold>
      <weakClassifiers>
        <_>
          <internalNodes>
            0 -1 101 -4.8852001782506704e-04</internalNodes>
          <leafValues>
            3.2812500000000000e-01 -3.6046510934829712e-01</leafValues></_>
        <_>
          <internalNodes>
            0 -1 146 2.9550894396379590e-04</internalNodes>
          <leafValues>
            -5.8224862813949585e-01 1.4725618064403534e-01</leafValues></_>
        <_>
          <internalNodes>
            0 -1 89 1.2296321801841259e-02</internalNodes>
          <leafValues>
            -3.9115306735038757e-01 2.8087460994720459e-01</leafValues></_>
        <_>
          <internalNodes>
            0 -1 212 5.4772102885181084e-05</internalNodes>
          <leafValues>
            1.3644818961620331e-01 -5.8651250600814819e-01</leafValues></_>
        <_>
          <internalNodes>
            0 -1 231 3.9134919643402100e-03</internalNodes>
          <leafValues>
            -2.2518949210643768e-01 3.6919876933097839e-01</leafValues></_>
        <_>
          <internalNodes>
            0 -1 236 2.3145678278524429e-04</internalNodes>
          <leafValues>
            1.2004120647907257e-01 -5.7243514060974121e-01</leafValues></_>
        <_>
          <internalNodes>
            0 -1 92 -4.4441246427595615e-03</internalNodes>
          <leafValues>
            2.6611173152923584e-01 -2.7983838319778442e-01</leafValues></_>
        <_>
          <internalNodes>
            0 -1 81 3.8502156734466553e-02</internalNodes>
          <leafValues>
            -8.8781520724296570e-02 7.0289695262908936e-01</leafValues></_>
        <_>
          <internalNodes>
            0 -1 134 4.1366729419678450e-05</internalNodes>
          <leafValues>
            1.5073280036449432e-01 -5.3951138257980347e-01</leafValues></_>
        <_>
          <internalNodes>
            0 -1 266 -7.6650865375995636e-03</internalNodes>
          <leafValues>
            -6.6374802589416504e-01 1.1508563160896301e-01</leafValues></_>
        <_>
          <internalNodes>
            0 -1 9 4.6109192771837115e-04</internalNodes>
          <leafValues>
            -2.3701831698417664e-01 3.1456509232521057e-01</leafValues></_>
        <_>
          <internalNodes>
            0 -1 246 4.1264640458393842e-05</internalNodes>
          <leafValues>
            1.4689064025878906e-01 -4.9467441439628601e-01</leafValues></_>
        <_>
          <internalNodes>
            0 -1 30 -3.5066714044660330e-03</internalNodes>
          <leafValues>
            -7.3530274629592896e-01 5.5781193077564240e-02</leafValues></_>
        <_>
          <internalNodes>
            0 -1 198 -1.6519130440428853e-04</internalNodes>
          <leafValues>
            -5.9201097488403320e-01 9.0960189700126648e-02</leafValues></_>
        <_>
          <internalNodes>
            0 -1 76 -2.1261665970087051e-03</internalNodes>
          <leafValues>
            3.7223103642463684e-01 -1.8089279532432556e-01</leafValues></_>
        <_>
          <internalNodes>
            0 -1 77 -2.4854499497450888e-04</internalNodes>
          <leafValues>
            3.3411514759063721e-01 -2.1921049058437347e-01</leafValues></_></weakClassifiers></_>
    <!-- stage 13 -->
    <_>
      <maxWeakCount>16</maxWeakCount>
      <stageThreshold>-7.7965676784515381e-01</stageThreshold>
      <weakClassifiers>
        <_>
          <internalNodes>
            0 -1 263 -6.3202005549101159e-06</internalNodes>
          <leafValues>
            1.3644859194755554e-01 -5.7209300994873047e-01</leafValues></_>
        <_>
          <internalNodes>
            0 -1 27 4.5399716496467590e-01</internalNodes>
          <leafValues>
            -1.7362472414970398e-01 6.6397774219512939e-01</leafValues></_>
        <_>
          <internalNodes>
            0 -1 142 -4.5943884178996086e-03</internalNodes>
          <leafValues>
            3.4103301167488098e-01 -2.7379137277603149e-01</leafValues></_>
        <_>
          <internalNodes>
            0 -1 257 9.7319739870727062e-04</internalNodes>
          <leafValues>
            -3.4642896056175232e-01 2.2084350883960724e-01</leafValues></_>
        <_>
          <internalNodes>
            0 -1 34 6.2166051939129829e-03</internalNodes>
          <leafValues>
            -3.4641307592391968e-01 2.5748237967491150e-01</leafValues></_>
        <_>
          <internalNodes>
            0 -1 19 1.2583747506141663e-01</internalNodes>
          <leafValues>
            1.0678516328334808e-01 -8.7836092710494995e-01</leafValues></_>
        <_>
          <internalNodes>
            0 -1 43 8.6657877545803785e-04</internalNodes>
          <leafValues>
            -2.8176528215408325e-01 2.7578002214431763e-01</leafValues></_>
        <_>
          <internalNodes>
            0 -1 41 9.4906514277681708e-05</internalNodes>
          <leafValues>
            8.3782389760017395e-02 -7.2227036952972412e-01</leafValues></_>
        <_>
          <internalNodes>
            0 -1 158 -2.2784322500228882e-03</internalNodes>
          <leafValues>
            4.2981103062629700e-01 -1.8682301044464111e-01</leafValues></_>
        <_>
          <internalNodes>
            0 -1 128 -1.5121945179998875e-03</internalNodes>
          <leafValues>
            3.8250297307968140e-01 -1.8195904791355133e-01</leafValues></_>
        <_>
          <internalNodes>
            0 -1 267 4.5961274736328050e-05</internalNodes>
          <leafValues>
            1.4945788681507111e-01 -4.9104857444763184e-01</leafValues></_>
        <_>
          <internalNodes>
            0 -1 151 -8.6795829702168703e-04</internalNodes>
          <leafValues>
            -9.1628718376159668e-01 7.9857505857944489e-02</leafValues></_>
        <_>
          <internalNodes>
            0 -1 53 1.8631401471793652e-03</internalNodes>
          <leafValues>
            -1.6975750029087067e-01 4.6488025784492493e-01</leafValues></_>
        <_>
          <internalNodes>
            0 -1 7 -2.2658529877662659e-01</internalNodes>
          <leafValues>
            7.7943074703216553e-01 -9.8854936659336090e-02</leafValues></_>
        <_>
          <internalNodes>
            0 -1 48 1.4802603423595428e-01</internalNodes>
          <leafValues>
            -1.1525598913431168e-01 6.0486537218093872e-01</leafValues></_>
        <_>
          <internalNodes>
            0 -1 4 2.2294364869594574e-01</internalNodes>
          <leafValues>
            -1.9422464072704315e-01 3.7989592552185059e-01</leafValues></_></weakClassifiers></_>
    <!-- stage 14 -->
    <_>
      <maxWeakCount>13</maxWeakCount>
      <stageThreshold>-8.5716432332992554e-01</stageThreshold>
      <weakClassifiers>
        <_>
          <internalNodes>
            0 -1 120 -1.4276128495112062e-03</internalNodes>
          <leafValues>
            3.4716981649398804e-01 -2.9278349876403809e-01</leafValues></_>
        <_>
          <internalNodes>
            0 -1 215 1.0717150289565325e-03</internalNodes>
          <leafValues>
            -3.9569994807243347e-01 2.0947374403476715e-01</leafValues></_>
        <_>
          <internalNodes>
            0 -1 109 -1.6017828602343798e-03</internalNodes>
          <leafValues>
            2.4542018771171570e-01 -3.2212674617767334e-01</leafValues></_>
        <_>
          <internalNodes>
            0 -1 54 -3.4306380897760391e-02</internalNodes>
          <leafValues>
            -4.2550340294837952e-01 2.3839440941810608e-01</leafValues></_>
        <_>
          <internalNodes>
            0 -1 260 -1.4419690705835819e-04</internalNodes>
          <leafValues>
            -6.9230723381042480e-01 2.5411712005734444e-02</leafValues></_>
        <_>
          <internalNodes>
            0 -1 140 4.9564568325877190e-03</internalNodes>
          <leafValues>
            1.9429548084735870e-01 -4.5162439346313477e-01</leafValues></_>
        <_>
          <internalNodes>
            0 -1 149 -4.8806583508849144e-03</internalNodes>
          <leafValues>
            -6.1009162664413452e-01 1.4364679157733917e-01</leafValues></_>
        <_>
          <internalNodes>
            0 -1 91 5.3752196254208684e-04</internalNodes>
          <leafValues>
            -6.1157488822937012e-01 7.0207841694355011e-02</leafValues></_>
        <_>
          <internalNodes>
            0 -1 22 8.4931252058595419e-04</internalNodes>
          <leafValues>
            -2.9613494873046875e-01 2.7292463183403015e-01</leafValues></_>
        <_>
          <internalNodes>
            0 -1 157 -1.0210066102445126e-03</internalNodes>
          <leafValues>
            4.4242271780967712e-01 -1.4674559235572815e-01</leafValues></_>
        <_>
          <internalNodes>
            0 -1 58 2.9912851459812373e-05</internalNodes>
          <leafValues>
            1.2183261662721634e-01 -5.0703394412994385e-01</leafValues></_>
        <_>
          <internalNodes>
            0 -1 24 2.4660907685756683e-02</internalNodes>
          <leafValues>
            -1.7193800210952759e-01 4.3446025252342224e-01</leafValues></_>
        <_>
          <internalNodes>
            0 -1 59 -2.0242799073457718e-03</internalNodes>
          <leafValues>
            3.3155485987663269e-01 -2.4943450093269348e-01</leafValues></_></weakClassifiers></_>
    <!-- stage 15 -->
    <_>
      <maxWeakCount>14</maxWeakCount>
      <stageThreshold>-9.7771233320236206e-01</stageThreshold>
      <weakClassifiers>
        <_>
          <internalNodes>
            0 -1 110 8.5396075155586004e-04</internalNodes>
          <leafValues>
            -7.3825502395629883e-01 9.9833607673645020e-02</leafValues></_>
        <_>
          <internalNodes>
            0 -1 217 1.6664585564285517e-03</internalNodes>
          <leafValues>
            -3.4394505620002747e-01 2.5247365236282349e-01</leafValues></_>
        <_>
          <internalNodes>
            0 -1 56 -9.6155563369393349e-03</internalNodes>
          <leafValues>
            -3.8195431232452393e-01 2.6956799626350403e-01</leafValues></_>
        <_>
          <internalNodes>
            0 -1 144 9.2902660369873047e-02</internalNodes>
          <leafValues>
            -2.0094938576221466e-01 6.6881632804870605e-01</leafValues></_>
        <_>
          <internalNodes>
            0 -1 71 1.6703963279724121e-02</internalNodes>
          <leafValues>
            1.9051101803779602e-01 -5.4283976554870605e-01</leafValues></_>
        <_>
          <internalNodes>
            0 -1 23 9.1961145401000977e-02</internalNodes>
          <leafValues>
            4.5354697853326797e-02 -9.2099642753601074e-01</leafValues></_>
        <_>
          <internalNodes>
            0 -1 272 4.4891057768836617e-05</internalNodes>
          <leafValues>
            1.4263936877250671e-01 -5.7658010721206665e-01</leafValues></_>
        <_>
          <internalNodes>
            0 -1 12 -1.9786309450864792e-02</internalNodes>
          <leafValues>
            4.4728139042854309e-01 -1.5972118079662323e-01</leafValues></_>
        <_>
          <internalNodes>
            0 -1 78 -7.5040441006422043e-03</internalNodes>
          <leafValues>
            6.7627590894699097e-01 -1.3156923651695251e-01</leafValues></_>
        <_>
          <internalNodes>
            0 -1 189 -9.1119355056434870e-04</internalNodes>
          <leafValues>
            -6.2365537881851196e-01 1.2455466389656067e-01</leafValues></_>
        <_>
          <internalNodes>
            0 -1 60 -1.1082708369940519e-03</internalNodes>
          <leafValues>
            -7.2758734226226807e-01 8.4902316331863403e-02</leafValues></_>
        <_>
          <internalNodes>
            0 -1 247 -1.6915576998144388e-04</internalNodes>
          <leafValues>
            -5.0283825397491455e-01 1.0449093580245972e-01</leafValues></_>
        <_>
          <internalNodes>
            0 -1 201 8.5446733282878995e-04</internalNodes>
          <leafValues>
            -3.1560418009757996e-01 2.3293866217136383e-01</leafValues></_>
        <_>
          <internalNodes>
            0 -1 137 3.8934517651796341e-02</internalNodes>
          <leafValues>
            -9.9323481321334839e-02 8.0020201206207275e-01</leafValues></_></weakClassifiers></_>
    <!-- stage 16 -->
    <_>
      <maxWeakCount>20</maxWeakCount>
      <stageThreshold>-1.2058154344558716e+00</stageThreshold>
      <weakClassifiers>
        <_>
          <internalNodes>
            0 -1 242 1.3685069046914577e-02</internalNodes>
          <leafValues>
            -4.1538462042808533e-01 2.0000000298023224e-01</leafValues></_>
        <_>
          <internalNodes>
            0 -1 238 2.2129848599433899e-02</internalNodes>
          <leafValues>
            -2.1928805112838745e-01 3.9213964343070984e-01</leafValues></_>
        <_>
          <internalNodes>
            0 -1 135 -6.6701078321784735e-04</internalNodes>
          <leafValues>
            2.3905038833618164e-01 -3.2723146677017212e-01</leafValues></_>
        <_>
          <internalNodes>
            0 -1 107 -4.9609388224780560e-04</internalNodes>
          <leafValues>
            3.0488798022270203e-01 -2.7475404739379883e-01</leafValues></_>
        <_>
          <internalNodes>
            0 -1 94 2.6188406627625227e-03</internalNodes>
          <leafValues>
            -3.5811495780944824e-01 1.7743697762489319e-01</leafValues></_>
        <_>
          <internalNodes>
            0 -1 270 8.6868563666939735e-03</internalNodes>
          <leafValues>
            1.2244191765785217e-01 -7.1128547191619873e-01</leafValues></_>
        <_>
          <internalNodes>
            0 -1 0 1.2453126255422831e-03</internalNodes>
          <leafValues>
            6.8564131855964661e-02 -8.7400257587432861e-01</leafValues></_>
        <_>
          <internalNodes>
            0 -1 37 4.9548309296369553e-02</internalNodes>
          <leafValues>
            9.5139347016811371e-02 -6.3171637058258057e-01</leafValues></_>
        <_>
          <internalNodes>
            0 -1 42 4.8250434920191765e-03</internalNodes>
          <leafValues>
            -1.8646073341369629e-01 3.9968186616897583e-01</leafValues></_>
        <_>
          <internalNodes>
            0 -1 52 -3.9907824248075485e-03</internalNodes>
          <leafValues>
            4.1115042567253113e-01 -2.3306521773338318e-01</leafValues></_>
        <_>
          <internalNodes>
            0 -1 229 5.1521719433367252e-04</internalNodes>
          <leafValues>
            1.8461358547210693e-01 -3.9104631543159485e-01</leafValues></_>
        <_>
          <internalNodes>
            0 -1 165 -5.8546736836433411e-03</internalNodes>
          <leafValues>
            2.8018689155578613e-01 -2.5199785828590393e-01</leafValues></_>
        <_>
          <internalNodes>
            0 -1 80 -3.2076448202133179e-02</internalNodes>
          <leafValues>
            -3.5386303067207336e-01 2.1146260201931000e-01</leafValues></_>
        <_>
          <internalNodes>
            0 -1 154 -6.1301724053919315e-04</internalNodes>
          <leafValues>
            3.3915987610816956e-01 -2.4367277324199677e-01</leafValues></_>
        <_>
          <internalNodes>
            0 -1 258 -3.2757852750364691e-05</internalNodes>
          <leafValues>
            1.8256607651710510e-01 -3.4661549329757690e-01</leafValues></_>
        <_>
          <internalNodes>
            0 -1 274 -4.4403396896086633e-04</internalNodes>
          <leafValues>
            -5.5937069654464722e-01 1.2031376361846924e-01</leafValues></_>
        <_>
          <internalNodes>
            0 -1 176 3.5605975426733494e-04</internalNodes>
          <leafValues>
            1.6945879161357880e-01 -4.4535529613494873e-01</leafValues></_>
        <_>
          <internalNodes>
            0 -1 57 -1.1901876423507929e-03</internalNodes>
          <leafValues>
            3.2247075438499451e-01 -2.0130750536918640e-01</leafValues></_>
        <_>
          <internalNodes>
            0 -1 35 1.1354092508554459e-02</internalNodes>
          <leafValues>
            -2.3688516020774841e-01 3.5591137409210205e-01</leafValues></_>
        <_>
          <internalNodes>
            0 -1 21 1.9520041346549988e-01</internalNodes>
          <leafValues>
            -8.5231140255928040e-02 6.4393776655197144e-01</leafValues></_></weakClassifiers></_>
    <!-- stage 17 -->
    <_>
      <maxWeakCount>19</maxWeakCount>
      <stageThreshold>-1.0277652740478516e+00</stageThreshold>
      <weakClassifiers>
        <_>
          <internalNodes>
            0 -1 131 -1.3664756261277944e-04</internalNodes>
          <leafValues>
            1.8284423649311066e-01 -4.2671009898185730e-01</leafValues></_>
        <_>
          <internalNodes>
            0 -1 216 5.4255174472928047e-04</internalNodes>
          <leafValues>
            -4.4423389434814453e-01 1.9891957938671112e-01</leafValues></_>
        <_>
          <internalNodes>
            0 -1 211 -1.2365577276796103e-04</internalNodes>
          <leafValues>
            -5.6421387195587158e-01 1.4319197833538055e-01</leafValues></_>
        <_>
          <internalNodes>
            0 -1 123 -3.8504996336996555e-04</internalNodes>
          <leafValues>
            3.4074115753173828e-01 -2.5932151079177856e-01</leafValues></_>
        <_>
          <internalNodes>
            0 -1 121 8.7378788739442825e-03</internalNodes>
          <leafValues>
            -2.7908444404602051e-01 3.1858119368553162e-01</leafValues></_>
        <_>
          <internalNodes>
            0 -1 183 5.7589255447965115e-05</internalNodes>
          <leafValues>
            1.1239107698202133e-01 -5.8049207925796509e-01</leafValues></_>
        <_>
          <internalNodes>
            0 -1 85 -8.1456555053591728e-03</internalNodes>
          <leafValues>
            3.5649770498275757e-01 -2.4981051683425903e-01</leafValues></_>
        <_>
          <internalNodes>
            0 -1 214 2.2848546504974365e-03</internalNodes>
          <leafValues>
            -2.6557028293609619e-01 2.8042578697204590e-01</leafValues></_>
        <_>
          <internalNodes>
            0 -1 33 -1.5879616141319275e-01</internalNodes>
          <leafValues>
            6.0995829105377197e-01 -1.4066483080387115e-01</leafValues></_>
        <_>
          <internalNodes>
            0 -1 253 5.3115887567400932e-04</internalNodes>
          <leafValues>
            1.2212036550045013e-01 -7.3093849420547485e-01</leafValues></_>
        <_>
          <internalNodes>
            0 -1 63 -5.0277002155780792e-03</internalNodes>
          <leafValues>
            3.1042844057083130e-01 -2.1108716726303101e-01</leafValues></_>
        <_>
          <internalNodes>
            0 -1 82 1.8911817669868469e-01</internalNodes>
          <leafValues>
            -1.0568477213382721e-01 7.1314060688018799e-01</leafValues></_>
        <_>
          <internalNodes>
            0 -1 207 1.6668782336637378e-04</internalNodes>
          <leafValues>
            -2.9641607403755188e-01 2.4930438399314880e-01</leafValues></_>
        <_>
          <internalNodes>
            0 -1 150 -5.2099535241723061e-03</internalNodes>
          <leafValues>
            4.8810550570487976e-01 -1.4609134197235107e-01</leafValues></_>
        <_>
          <internalNodes>
            0 -1 15 8.1999343819916248e-04</internalNodes>
          <leafValues>
            1.6371349990367889e-01 -4.4475799798965454e-01</leafValues></_>
        <_>
          <internalNodes>
            0 -1 249 2.8048481908626854e-05</internalNodes>
          <leafValues>
            1.4372149109840393e-01 -4.7922426462173462e-01</leafValues></_>
        <_>
          <internalNodes>
            0 -1 122 -3.2767045195214450e-04</internalNodes>
          <leafValues>
            2.7089837193489075e-01 -2.5329810380935669e-01</leafValues></_>
        <_>
          <internalNodes>
            0 -1 187 1.5148222155403346e-04</internalNodes>
          <leafValues>
            1.2554548680782318e-01 -5.3309655189514160e-01</leafValues></_>
        <_>
          <internalNodes>
            0 -1 264 5.6951253100123722e-06</internalNodes>
          <leafValues>
            -3.3519116044044495e-01 1.8358725309371948e-01</leafValues></_></weakClassifiers></_>
    <!-- stage 18 -->
    <_>
      <maxWeakCount>19</maxWeakCount>
      <stageThreshold>-8.6673122644424438e-01</stageThreshold>
      <weakClassifiers>
        <_>
          <internalNodes>
            0 -1 148 1.2926766276359558e-01</internalNodes>
          <leafValues>
            -3.3651551604270935e-01 2.7492445707321167e-01</leafValues></_>
        <_>
          <internalNodes>
            0 -1 49 5.9215202927589417e-03</internalNodes>
          <leafValues>
            -3.1522285938262939e-01 2.6566526293754578e-01</leafValues></_>
        <_>
          <internalNodes>
            0 -1 169 5.1237147301435471e-02</internalNodes>
          <leafValues>
            -1.0617120563983917e-01 7.2001284360885620e-01</leafValues></_>
        <_>
          <internalNodes>
            0 -1 193 -5.7200682931579649e-05</internalNodes>
          <leafValues>
            2.3120923340320587e-01 -3.1254640221595764e-01</leafValues></_>
        <_>
          <internalNodes>
            0 -1 219 2.4540887679904699e-03</internalNodes>
          <leafValues>
            -3.5748454928398132e-01 2.1792815625667572e-01</leafValues></_>
        <_>
          <internalNodes>
            0 -1 86 3.6185324192047119e-02</internalNodes>
          <leafValues>
            -2.3323188722133636e-01 3.2635426521301270e-01</leafValues></_>
        <_>
          <internalNodes>
            0 -1 115 -3.1362533569335938e-02</internalNodes>
          <leafValues>
            5.9495276212692261e-01 -1.5331660211086273e-01</leafValues></_>
        <_>
          <internalNodes>
            0 -1 240 6.2879506731405854e-04</internalNodes>
          <leafValues>
            1.7464029788970947e-01 -5.4052424430847168e-01</leafValues></_>
        <_>
          <internalNodes>
            0 -1 36 -1.4284983277320862e-02</internalNodes>
          <leafValues>
            -6.9252002239227295e-01 5.7074923068284988e-02</leafValues></_>
        <_>
          <internalNodes>
            0 -1 133 -1.4337852189783007e-04</internalNodes>
          <leafValues>
            -5.4691940546035767e-01 9.6549324691295624e-02</leafValues></_>
        <_>
          <internalNodes>
            0 -1 25 8.9809492230415344e-02</internalNodes>
          <leafValues>
            6.8528309464454651e-02 -8.7295442819595337e-01</leafValues></_>
        <_>
          <internalNodes>
            0 -1 112 -7.9572596587240696e-04</internalNodes>
          <leafValues>
            3.0961513519287109e-01 -1.9494394958019257e-01</leafValues></_>
        <_>
          <internalNodes>
            0 -1 113 3.2163269352167845e-03</internalNodes>
          <leafValues>
            -1.6417951881885529e-01 4.1251358389854431e-01</leafValues></_>
        <_>
          <internalNodes>
            0 -1 50 -4.2543097515590489e-04</internalNodes>
          <leafValues>
            -5.8005267381668091e-01 1.0703118145465851e-01</leafValues></_>
        <_>
          <internalNodes>
            0 -1 239 3.9904902223497629e-05</internalNodes>
          <leafValues>
            1.2063551694154739e-01 -4.0570852160453796e-01</leafValues></_>
        <_>
          <internalNodes>
            0 -1 275 3.9236729207914323e-05</internalNodes>
          <leafValues>
            1.3577540218830109e-01 -4.5223397016525269e-01</leafValues></_>
        <_>
          <internalNodes>
            0 -1 29 6.0480639338493347e-02</internalNodes>
          <leafValues>
            6.7768909037113190e-02 -8.9470058679580688e-01</leafValues></_>
        <_>
          <internalNodes>
            0 -1 174 -1.2385964393615723e-02</internalNodes>
          <leafValues>
            5.6071990728378296e-01 -1.2455423921346664e-01</leafValues></_>
        <_>
          <internalNodes>
            0 -1 226 8.9724399149417877e-03</internalNodes>
          <leafValues>
            -3.4702989459037781e-01 2.1880398690700531e-01</leafValues></_></weakClassifiers></_>
    <!-- stage 19 -->
    <_>
      <maxWeakCount>19</maxWeakCount>
      <stageThreshold>-9.4795948266983032e-01</stageThreshold>
      <weakClassifiers>
        <_>
          <internalNodes>
            0 -1 179 1.0138202458620071e-02</internalNodes>
          <leafValues>
            -2.5550240278244019e-01 3.6703297495841980e-01</leafValues></_>
        <_>
          <internalNodes>
            0 -1 185 5.5809359764680266e-05</internalNodes>
          <leafValues>
            -5.2745896577835083e-01 1.2720710039138794e-01</leafValues></_>
        <_>
          <internalNodes>
            0 -1 96 -1.3446493539959192e-03</internalNodes>
          <leafValues>
            3.8071751594543457e-01 -1.7769490182399750e-01</leafValues></_>
        <_>
          <internalNodes>
            0 -1 106 3.1047193333506584e-03</internalNodes>
          <leafValues>
            1.4636145532131195e-01 -6.7715561389923096e-01</leafValues></_>
        <_>
          <internalNodes>
            0 -1 98 1.2433065101504326e-02</internalNodes>
          <leafValues>
            -1.9312925636768341e-01 4.1796219348907471e-01</leafValues></_>
        <_>
          <internalNodes>
            0 -1 139 -7.2384001687169075e-03</internalNodes>
          <leafValues>
            2.0924916863441467e-01 -3.2057827711105347e-01</leafValues></_>
        <_>
          <internalNodes>
            0 -1 171 -3.8395985960960388e-02</internalNodes>
          <leafValues>
            6.2570500373840332e-01 -1.3536185026168823e-01</leafValues></_>
        <_>
          <internalNodes>
            0 -1 79 -2.7682010084390640e-02</internalNodes>
          <leafValues>
            -3.9835059642791748e-01 2.0573942363262177e-01</leafValues></_>
        <_>
          <internalNodes>
            0 -1 93 -6.1130803078413010e-04</internalNodes>
          <leafValues>
            2.3545685410499573e-01 -3.7723547220230103e-01</leafValues></_>
        <_>
          <internalNodes>
            0 -1 164 3.8512302126036957e-05</internalNodes>
          <leafValues>
            5.9865847229957581e-02 -5.8326816558837891e-01</leafValues></_>
        <_>
          <internalNodes>
            0 -1 194 5.6917965412139893e-04</internalNodes>
          <leafValues>
            1.1669286340475082e-01 -5.1683592796325684e-01</leafValues></_>
        <_>
          <internalNodes>
            0 -1 269 8.0407466739416122e-03</internalNodes>
          <leafValues>
            8.2789629697799683e-02 -6.8008553981781006e-01</leafValues></_>
        <_>
          <internalNodes>
            0 -1 6 1.4012731844559312e-03</internalNodes>
          <leafValues>
            -1.7474873363971710e-01 3.2879179716110229e-01</leafValues></_>
        <_>
          <internalNodes>
            0 -1 46 -1.2561050243675709e-03</internalNodes>
          <leafValues>
            3.3316966891288757e-01 -2.0181310176849365e-01</leafValues></_>
        <_>
          <internalNodes>
            0 -1 126 -2.3437395691871643e-02</internalNodes>
          <leafValues>
            -8.0194717645645142e-01 8.8475763797760010e-02</leafValues></_>
        <_>
          <internalNodes>
            0 -1 83 1.1256426572799683e-01</internalNodes>
          <leafValues>
            -1.1753188818693161e-01 6.4031702280044556e-01</leafValues></_>
        <_>
          <internalNodes>
            0 -1 191 7.7374750981107354e-04</internalNodes>
          <leafValues>
            -2.5966870784759521e-01 2.4152770638465881e-01</leafValues></_>
        <_>
          <internalNodes>
            0 -1 114 -7.0345285348594189e-04</internalNodes>
          <leafValues>
            -5.8626586198806763e-01 1.2310939282178879e-01</leafValues></_>
        <_>
          <internalNodes>
            0 -1 202 1.3957312330603600e-04</internalNodes>
          <leafValues>
            -3.4987691044807434e-01 1.7045335471630096e-01</leafValues></_></weakClassifiers></_></stages>
  <features>
    <_>
      <rects>
        <_>
          0 0 2 12 -1.</_>
        <_>
          0 0 1 6 2.</_>
        <_>
          1 6 1 6 2.</_></rects>
      <tilted>0</tilted></_>
    <_>
      <rects>
        <_>
          0 2 3 8 -1.</_>
        <_>
          1 2 1 8 3.</_></rects>
      <tilted>0</tilted></_>
    <_>
      <rects>
        <_>
          0 3 3 4 -1.</_>
        <_>
          1 3 1 4 3.</_></rects>
      <tilted>0</tilted></_>
    <_>
      <rects>
        <_>
          0 3 5 9 -1.</_>
        <_>
          0 6 5 3 3.</_></rects>
      <tilted>0</tilted></_>
    <_>
      <rects>
        <_>
          0 4 39 15 -1.</_>
        <_>
          13 9 13 5 9.</_></rects>
      <tilted>0</tilted></_>
    <_>
      <rects>
        <_>
          0 6 20 4 -1.</_>
        <_>
          0 6 10 2 2.</_>
        <_>
          10 8 10 2 2.</_></rects>
      <tilted>0</tilted></_>
    <_>
      <rects>
        <_>
          0 10 18 3 -1.</_>
        <_>
          0 11 18 1 3.</_></rects>
      <tilted>0</tilted></_>
    <_>
      <rects>
        <_>
          0 13 58 7 -1.</_>
        <_>
          29 13 29 7 2.</_></rects>
      <tilted>0</tilted></_>
    <_>
      <rects>
        <_>
          1 0 3 2 -1.</_>
        <_>
          2 0 1 2 3.</_></rects>
      <tilted>0</tilted></_>
    <_>
      <rects>
        <_>
          1 0 1 10 -1.</_>
        <_>
          1 5 1 5 2.</_></rects>
      <tilted>0</tilted></_>
    <_>
      <rects>
        <_>
          1 0 36 20 -1.</_>
        <_>
          1 5 36 10 2.</_></rects>
      <tilted>0</tilted></_>
    <_>
      <rects>
        <_>
          1 1 48 18 -1.</_>
        <_>
          17 7 16 6 9.</_></rects>
      <tilted>0</tilted></_>
    <_>
      <rects>
        <_>
          1 2 15 12 -1.</_>
        <_>
          6 2 5 12 3.</_></rects>
      <tilted>0</tilted></_>
    <_>
      <rects>
        <_>
          1 2 57 18 -1.</_>
        <_>
          20 8 19 6 9.</_></rects>
      <tilted>0</tilted></_>
    <_>
      <rects>
        <_>
          1 13 48 6 -1.</_>
        <_>
          25 13 24 6 2.</_></rects>
      <tilted>0</tilted></_>
    <_>
      <rects>
        <_>
          1 19 16 1 -1.</_>
        <_>
          9 19 8 1 2.</_></rects>
      <tilted>0</tilted></_>
    <_>
      <rects>
        <_>
          2 0 4 1 -1.</_>
        <_>
          3 0 2 1 2.</_></rects>
      <tilted>0</tilted></_>
    <_>
      <rects>
        <_>
          2 1 27 18 -1.</_>
        <_>
          11 7 9 6 9.</_></rects>
      <tilted>0</tilted></_>
    <_>
      <rects>
        <_>
          2 2 12 9 -1.</_>
        <_>
          2 5 12 3 3.</_></rects>
      <tilted>0</tilted></_>
    <_>
      <rects>
        <_>
          2 8 31 9 -1.</_>
        <_>
          2 11 31 3 3.</_></rects>
      <tilted>0</tilted></_>
    <_>
      <rects>
        <_>
          2 19 10 1 -1.</_>
        <_>
          7 19 5 1 2.</_></rects>
      <tilted>0</tilted></_>
    <_>
      <rects>
        <_>
          3 1 50 16 -1.</_>
        <_>
          3 1 25 8 2.</_>
        <_>
          28 9 25 8 2.</_></rects>
      <tilted>0</tilted></_>
    <_>
      <rects>
        <_>
          3 4 1 10 -1.</_>
        <_>
          3 9 1 5 2.</_></rects>
      <tilted>0</tilted></_>
    <_>
      <rects>
        <_>
          3 7 33 7 -1.</_>
        <_>
          14 7 11 7 3.</_></rects>
      <tilted>0</tilted></_>
    <_>
      <rects>
        <_>
          3 8 16 7 -1.</_>
        <_>
          11 8 8 7 2.</_></rects>
      <tilted>0</tilted></_>
    <_>
      <rects>
        <_>
          4 6 33 6 -1.</_>
        <_>
          15 6 11 6 3.</_></rects>
      <tilted>0</tilted></_>
    <_>
      <rects>
        <_>
          4 7 19 9 -1.</_>
        <_>
          4 10 19 3 3.</_></rects>
      <tilted>0</tilted></_>
    <_>
      <rects>
        <_>
          5 0 43 20 -1.</_>
        <_>
          5 5 43 10 2.</_></rects>
      <tilted>0</tilted></_>
    <_>
      <rects>
        <_>
          5 5 6 4 -1.</_>
        <_>
          5 5 6 2 2.</_></rects>
      <tilted>1</tilted></_>
    <_>
      <rects>
        <_>
          5 8 22 8 -1.</_>
        <_>
          5 10 22 4 2.</_></rects>
      <tilted>0</tilted></_>
    <_>
      <rects>
        <_>
          6 0 12 3 -1.</_>
        <_>
          10 0 4 3 3.</_></rects>
      <tilted>0</tilted></_>
    <_>
      <rects>
        <_>
          6 1 16 5 -1.</_>
        <_>
          14 1 8 5 2.</_></rects>
      <tilted>0</tilted></_>
    <_>
      <rects>
        <_>
          6 2 48 18 -1.</_>
        <_>
          6 2 24 9 2.</_>
        <_>
          30 11 24 9 2.</_></rects>
      <tilted>0</tilted></_>
    <_>
      <rects>
        <_>
          6 4 18 15 -1.</_>
        <_>
          12 9 6 5 9.</_></rects>
      <tilted>0</tilted></_>
    <_>
      <rects>
        <_>
          6 7 20 4 -1.</_>
        <_>
          16 7 10 4 2.</_></rects>
      <tilted>0</tilted></_>
    <_>
      <rects>
        <_>
          6 10 14 9 -1.</_>
        <_>
          6 13 14 3 3.</_></rects>
      <tilted>0</tilted></_>
    <_>
      <rects>
        <_>
          6 11 47 2 -1.</_>
        <_>
          6 12 47 1 2.</_></rects>
      <tilted>0</tilted></_>
    <_>
      <rects>
        <_>
          7 0 24 13 -1.</_>
        <_>
          13 0 12 13 2.</_></rects>
      <tilted>0</tilted></_>
    <_>
      <rects>
        <_>
          7 3 13 4 -1.</_>
        <_>
          7 3 13 2 2.</_></rects>
      <tilted>1</tilted></_>
    <_>
      <rects>
        <_>
          7 8 31 12 -1.</_>
        <_>
          7 14 31 6 2.</_></rects>
      <tilted>0</tilted></_>
    <_>
      <rects>
        <_>
          7 10 9 5 -1.</_>
        <_>
          10 10 3 5 3.</_></rects>
      <tilted>0</tilted></_>
    <_>
      <rects>
        <_>
          7 19 3 1 -1.</_>
        <_>
          8 19 1 1 3.</_></rects>
      <tilted>0</tilted></_>
    <_>
      <rects>
        <_>
          8 1 12 11 -1.</_>
        <_>
          11 1 6 11 2.</_></rects>
      <tilted>0</tilted></_>
    <_>
      <rects>
        <_>
          8 2 2 8 -1.</_>
        <_>
          8 6 2 4 2.</_></rects>
      <tilted>0</tilted></_>
    <_>
      <rects>
        <_>
          8 3 16 1 -1.</_>
        <_>
          12 7 8 1 2.</_></rects>
      <tilted>1</tilted></_>
    <_>
      <rects>
        <_>
          8 7 14 13 -1.</_>
        <_>
          15 7 7 13 2.</_></rects>
      <tilted>0</tilted></_>
    <_>
      <rects>
        <_>
          8 9 9 4 -1.</_>
        <_>
          8 10 9 2 2.</_></rects>
      <tilted>0</tilted></_>
    <_>
      <rects>
        <_>
          8 10 14 8 -1.</_>
        <_>
          15 10 7 8 2.</_></rects>
      <tilted>0</tilted></_>
    <_>
      <rects>
        <_>
          8 10 48 5 -1.</_>
        <_>
          32 10 24 5 2.</_></rects>
      <tilted>0</tilted></_>
    <_>
      <rects>
        <_>
          8 12 18 4 -1.</_>
        <_>
          17 12 9 4 2.</_></rects>
      <tilted>0</tilted></_>
    <_>
      <rects>
        <_>
          8 19 6 1 -1.</_>
        <_>
          11 19 3 1 2.</_></rects>
      <tilted>0</tilted></_>
    <_>
      <rects>
        <_>
          9 0 38 20 -1.</_>
        <_>
          9 5 38 10 2.</_></rects>
      <tilted>0</tilted></_>
    <_>
      <rects>
        <_>
          9 3 9 9 -1.</_>
        <_>
          12 3 3 9 3.</_></rects>
      <tilted>0</tilted></_>
    <_>
      <rects>
        <_>
          9 8 8 6 -1.</_>
        <_>
          11 8 4 6 2.</_></rects>
      <tilted>0</tilted></_>
    <_>
      <rects>
        <_>
          9 8 27 6 -1.</_>
        <_>
          18 10 9 2 9.</_></rects>
      <tilted>0</tilted></_>
    <_>
      <rects>
        <_>
          9 9 2 1 -1.</_>
        <_>
          9 9 1 1 2.</_></rects>
      <tilted>1</tilted></_>
    <_>
      <rects>
        <_>
          9 9 27 10 -1.</_>
        <_>
          18 9 9 10 3.</_></rects>
      <tilted>0</tilted></_>
    <_>
      <rects>
        <_>
          9 13 18 3 -1.</_>
        <_>
          9 14 18 1 3.</_></rects>
      <tilted>0</tilted></_>
    <_>
      <rects>
        <_>
          9 19 3 1 -1.</_>
        <_>
          10 19 1 1 3.</_></rects>
      <tilted>0</tilted></_>
    <_>
      <rects>
        <_>
          10 0 8 14 -1.</_>
        <_>
          12 0 4 14 2.</_></rects>
      <tilted>0</tilted></_>
    <_>
      <rects>
        <_>
          10 0 12 1 -1.</_>
        <_>
          14 0 4 1 3.</_></rects>
      <tilted>0</tilted></_>
    <_>
      <rects>
        <_>
          10 1 12 2 -1.</_>
        <_>
          16 1 6 2 2.</_></rects>
      <tilted>0</tilted></_>
    <_>
      <rects>
        <_>
          10 1 22 18 -1.</_>
        <_>
          10 7 22 6 3.</_></rects>
      <tilted>0</tilted></_>
    <_>
      <rects>
        <_>
          10 2 8 1 -1.</_>
        <_>
          10 2 4 1 2.</_></rects>
      <tilted>1</tilted></_>
    <_>
      <rects>
        <_>
          10 2 48 15 -1.</_>
        <_>
          26 7 16 5 9.</_></rects>
      <tilted>0</tilted></_>
    <_>
      <rects>
        <_>
          10 7 26 5 -1.</_>
        <_>
          23 7 13 5 2.</_></rects>
      <tilted>0</tilted></_>
    <_>
      <rects>
        <_>
          10 9 21 6 -1.</_>
        <_>
          17 9 7 6 3.</_></rects>
      <tilted>0</tilted></_>
    <_>
      <rects>
        <_>
          10 12 34 8 -1.</_>
        <_>
          10 16 34 4 2.</_></rects>
      <tilted>0</tilted></_>
    <_>
      <rects>
        <_>
          10 14 19 3 -1.</_>
        <_>
          10 15 19 1 3.</_></rects>
      <tilted>0</tilted></_>
    <_>
      <rects>
        <_>
          11 1 20 18 -1.</_>
        <_>
          11 7 20 6 3.</_></rects>
      <tilted>0</tilted></_>
    <_>
      <rects>
        <_>
          11 2 3 1 -1.</_>
        <_>
          12 2 1 1 3.</_></rects>
      <tilted>0</tilted></_>
    <_>
      <rects>
        <_>
          11 10 22 2 -1.</_>
        <_>
          22 10 11 2 2.</_></rects>
      <tilted>0</tilted></_>
    <_>
      <rects>
        <_>
          12 4 5 4 -1.</_>
        <_>
          11 5 5 2 2.</_></rects>
      <tilted>1</tilted></_>
    <_>
      <rects>
        <_>
          12 4 24 8 -1.</_>
        <_>
          24 4 12 8 2.</_></rects>
      <tilted>0</tilted></_>
    <_>
      <rects>
        <_>
          12 7 48 9 -1.</_>
        <_>
          36 7 24 9 2.</_></rects>
      <tilted>0</tilted></_>
    <_>
      <rects>
        <_>
          12 10 5 4 -1.</_>
        <_>
          12 11 5 2 2.</_></rects>
      <tilted>0</tilted></_>
    <_>
      <rects>
        <_>
          12 12 13 4 -1.</_>
        <_>
          12 13 13 2 2.</_></rects>
      <tilted>0</tilted></_>
    <_>
      <rects>
        <_>
          13 0 4 12 -1.</_>
        <_>
          14 0 2 12 2.</_></rects>
      <tilted>0</tilted></_>
    <_>
      <rects>
        <_>
          13 5 9 7 -1.</_>
        <_>
          16 5 3 7 3.</_></rects>
      <tilted>0</tilted></_>
    <_>
      <rects>
        <_>
          13 9 27 3 -1.</_>
        <_>
          22 10 9 1 9.</_></rects>
      <tilted>0</tilted></_>
    <_>
      <rects>
        <_>
          13 9 30 3 -1.</_>
        <_>
          23 10 10 1 9.</_></rects>
      <tilted>0</tilted></_>
    <_>
      <rects>
        <_>
          13 9 42 1 -1.</_>
        <_>
          34 9 21 1 2.</_></rects>
      <tilted>0</tilted></_>
    <_>
      <rects>
        <_>
          13 9 44 5 -1.</_>
        <_>
          35 9 22 5 2.</_></rects>
      <tilted>0</tilted></_>
    <_>
      <rects>
        <_>
          13 9 46 3 -1.</_>
        <_>
          36 9 23 3 2.</_></rects>
      <tilted>0</tilted></_>
    <_>
      <rects>
        <_>
          13 11 4 2 -1.</_>
        <_>
          13 12 4 1 2.</_></rects>
      <tilted>0</tilted></_>
    <_>
      <rects>
        <_>
          13 12 17 6 -1.</_>
        <_>
          13 14 17 2 3.</_></rects>
      <tilted>0</tilted></_>
    <_>
      <rects>
        <_>
          14 0 12 8 -1.</_>
        <_>
          17 3 6 8 2.</_></rects>
      <tilted>1</tilted></_>
    <_>
      <rects>
        <_>
          14 0 8 20 -1.</_>
        <_>
          18 0 4 20 2.</_></rects>
      <tilted>0</tilted></_>
    <_>
      <rects>
        <_>
          14 3 6 12 -1.</_>
        <_>
          14 6 6 6 2.</_></rects>
      <tilted>0</tilted></_>
    <_>
      <rects>
        <_>
          14 5 18 15 -1.</_>
        <_>
          20 10 6 5 9.</_></rects>
      <tilted>0</tilted></_>
    <_>
      <rects>
        <_>
          14 7 11 2 -1.</_>
        <_>
          14 7 11 1 2.</_></rects>
      <tilted>1</tilted></_>
    <_>
      <rects>
        <_>
          14 9 28 2 -1.</_>
        <_>
          28 9 14 2 2.</_></rects>
      <tilted>0</tilted></_>
    <_>
      <rects>
        <_>
          14 9 18 4 -1.</_>
        <_>
          14 11 18 2 2.</_></rects>
      <tilted>0</tilted></_>
    <_>
      <rects>
        <_>
          14 10 28 2 -1.</_>
        <_>
          21 10 14 2 2.</_></rects>
      <tilted>0</tilted></_>
    <_>
      <rects>
        <_>
          15 0 6 15 -1.</_>
        <_>
          18 0 3 15 2.</_></rects>
      <tilted>0</tilted></_>
    <_>
      <rects>
        <_>
          15 1 3 18 -1.</_>
        <_>
          15 7 3 6 3.</_></rects>
      <tilted>0</tilted></_>
    <_>
      <rects>
        <_>
          15 5 3 10 -1.</_>
        <_>
          16 6 1 10 3.</_></rects>
      <tilted>1</tilted></_>
    <_>
      <rects>
        <_>
          15 5 18 15 -1.</_>
        <_>
          21 10 6 5 9.</_></rects>
      <tilted>0</tilted></_>
    <_>
      <rects>
        <_>
          16 0 6 9 -1.</_>
        <_>
          18 2 2 9 3.</_></rects>
      <tilted>1</tilted></_>
    <_>
      <rects>
        <_>
          16 1 5 12 -1.</_>
        <_>
          16 5 5 4 3.</_></rects>
      <tilted>0</tilted></_>
    <_>
      <rects>
        <_>
          16 5 9 6 -1.</_>
        <_>
          19 5 3 6 3.</_></rects>
      <tilted>0</tilted></_>
    <_>
      <rects>
        <_>
          16 7 2 4 -1.</_>
        <_>
          16 9 2 2 2.</_></rects>
      <tilted>0</tilted></_>
    <_>
      <rects>
        <_>
          16 7 2 6 -1.</_>
        <_>
          16 9 2 2 3.</_></rects>
      <tilted>0</tilted></_>
    <_>
      <rects>
        <_>
          16 7 9 4 -1.</_>
        <_>
          16 8 9 2 2.</_></rects>
      <tilted>0</tilted></_>
    <_>
      <rects>
        <_>
          16 8 5 4 -1.</_>
        <_>
          16 10 5 2 2.</_></rects>
      <tilted>0</tilted></_>
    <_>
      <rects>
        <_>
          16 10 1 6 -1.</_>
        <_>
          16 10 1 3 2.</_></rects>
      <tilted>1</tilted></_>
    <_>
      <rects>
        <_>
          16 10 20 2 -1.</_>
        <_>
          16 10 10 1 2.</_>
        <_>
          26 11 10 1 2.</_></rects>
      <tilted>0</tilted></_>
    <_>
      <rects>
        <_>
          17 2 7 2 -1.</_>
        <_>
          17 2 7 1 2.</_></rects>
      <tilted>1</tilted></_>
    <_>
      <rects>
        <_>
          17 8 9 2 -1.</_>
        <_>
          17 9 9 1 2.</_></rects>
      <tilted>0</tilted></_>
    <_>
      <rects>
        <_>
          17 9 21 2 -1.</_>
        <_>
          17 10 21 1 2.</_></rects>
      <tilted>0</tilted></_>
    <_>
      <rects>
        <_>
          17 10 26 2 -1.</_>
        <_>
          30 10 13 2 2.</_></rects>
      <tilted>0</tilted></_>
    <_>
      <rects>
        <_>
          17 11 14 6 -1.</_>
        <_>
          17 13 14 2 3.</_></rects>
      <tilted>0</tilted></_>
    <_>
      <rects>
        <_>
          17 12 10 3 -1.</_>
        <_>
          17 13 10 1 3.</_></rects>
      <tilted>0</tilted></_>
    <_>
      <rects>
        <_>
          17 12 13 3 -1.</_>
        <_>
          17 13 13 1 3.</_></rects>
      <tilted>0</tilted></_>
    <_>
      <rects>
        <_>
          17 17 4 3 -1.</_>
        <_>
          19 17 2 3 2.</_></rects>
      <tilted>0</tilted></_>
    <_>
      <rects>
        <_>
          18 0 6 12 -1.</_>
        <_>
          15 3 6 6 2.</_></rects>
      <tilted>1</tilted></_>
    <_>
      <rects>
        <_>
          18 1 42 18 -1.</_>
        <_>
          32 7 14 6 9.</_></rects>
      <tilted>0</tilted></_>
    <_>
      <rects>
        <_>
          19 1 7 4 -1.</_>
        <_>
          19 1 7 2 2.</_></rects>
      <tilted>1</tilted></_>
    <_>
      <rects>
        <_>
          19 4 7 8 -1.</_>
        <_>
          19 6 7 4 2.</_></rects>
      <tilted>0</tilted></_>
    <_>
      <rects>
        <_>
          19 7 8 4 -1.</_>
        <_>
          21 7 4 4 2.</_></rects>
      <tilted>0</tilted></_>
    <_>
      <rects>
        <_>
          19 7 13 2 -1.</_>
        <_>
          19 8 13 1 2.</_></rects>
      <tilted>0</tilted></_>
    <_>
      <rects>
        <_>
          19 8 13 12 -1.</_>
        <_>
          19 12 13 4 3.</_></rects>
      <tilted>0</tilted></_>
    <_>
      <rects>
        <_>
          19 10 7 3 -1.</_>
        <_>
          19 11 7 1 3.</_></rects>
      <tilted>0</tilted></_>
    <_>
      <rects>
        <_>
          19 11 9 3 -1.</_>
        <_>
          19 12 9 1 3.</_></rects>
      <tilted>0</tilted></_>
    <_>
      <rects>
        <_>
          20 0 40 18 -1.</_>
        <_>
          30 0 20 18 2.</_></rects>
      <tilted>0</tilted></_>
    <_>
      <rects>
        <_>
          20 5 3 2 -1.</_>
        <_>
          20 5 3 1 2.</_></rects>
      <tilted>1</tilted></_>
    <_>
      <rects>
        <_>
          20 5 6 8 -1.</_>
        <_>
          20 9 6 4 2.</_></rects>
      <tilted>0</tilted></_>
    <_>
      <rects>
        <_>
          20 7 15 4 -1.</_>
        <_>
          20 9 15 2 2.</_></rects>
      <tilted>0</tilted></_>
    <_>
      <rects>
        <_>
          21 5 9 5 -1.</_>
        <_>
          24 5 3 5 3.</_></rects>
      <tilted>0</tilted></_>
    <_>
      <rects>
        <_>
          21 5 9 6 -1.</_>
        <_>
          24 5 3 6 3.</_></rects>
      <tilted>0</tilted></_>
    <_>
      <rects>
        <_>
          21 8 9 4 -1.</_>
        <_>
          24 8 3 4 3.</_></rects>
      <tilted>0</tilted></_>
    <_>
      <rects>
        <_>
          21 8 4 2 -1.</_>
        <_>
          21 9 4 1 2.</_></rects>
      <tilted>0</tilted></_>
    <_>
      <rects>
        <_>
          21 8 6 2 -1.</_>
        <_>
          21 9 6 1 2.</_></rects>
      <tilted>0</tilted></_>
    <_>
      <rects>
        <_>
          21 16 2 4 -1.</_>
        <_>
          21 16 1 2 2.</_>
        <_>
          22 18 1 2 2.</_></rects>
      <tilted>0</tilted></_>
    <_>
      <rects>
        <_>
          22 0 3 1 -1.</_>
        <_>
          23 0 1 1 3.</_></rects>
      <tilted>0</tilted></_>
    <_>
      <rects>
        <_>
          22 8 15 2 -1.</_>
        <_>
          22 9 15 1 2.</_></rects>
      <tilted>0</tilted></_>
    <_>
      <rects>
        <_>
          22 9 5 2 -1.</_>
        <_>
          22 10 5 1 2.</_></rects>
      <tilted>0</tilted></_>
    <_>
      <rects>
        <_>
          22 9 21 3 -1.</_>
        <_>
          29 9 7 3 3.</_></rects>
      <tilted>0</tilted></_>
    <_>
      <rects>
        <_>
          23 0 8 4 -1.</_>
        <_>
          25 0 4 4 2.</_></rects>
      <tilted>0</tilted></_>
    <_>
      <rects>
        <_>
          23 0 6 11 -1.</_>
        <_>
          23 0 3 11 2.</_></rects>
      <tilted>1</tilted></_>
    <_>
      <rects>
        <_>
          23 0 36 1 -1.</_>
        <_>
          35 0 12 1 3.</_></rects>
      <tilted>0</tilted></_>
    <_>
      <rects>
        <_>
          23 0 36 18 -1.</_>
        <_>
          35 6 12 6 9.</_></rects>
      <tilted>0</tilted></_>
    <_>
      <rects>
        <_>
          23 2 12 10 -1.</_>
        <_>
          27 2 4 10 3.</_></rects>
      <tilted>0</tilted></_>
    <_>
      <rects>
        <_>
          23 3 4 9 -1.</_>
        <_>
          20 6 4 3 3.</_></rects>
      <tilted>1</tilted></_>
    <_>
      <rects>
        <_>
          23 3 24 11 -1.</_>
        <_>
          29 3 12 11 2.</_></rects>
      <tilted>0</tilted></_>
    <_>
      <rects>
        <_>
          23 8 5 2 -1.</_>
        <_>
          23 9 5 1 2.</_></rects>
      <tilted>0</tilted></_>
    <_>
      <rects>
        <_>
          23 11 18 1 -1.</_>
        <_>
          32 11 9 1 2.</_></rects>
      <tilted>0</tilted></_>
    <_>
      <rects>
        <_>
          24 1 33 18 -1.</_>
        <_>
          35 7 11 6 9.</_></rects>
      <tilted>0</tilted></_>
    <_>
      <rects>
        <_>
          24 2 32 13 -1.</_>
        <_>
          32 2 16 13 2.</_></rects>
      <tilted>0</tilted></_>
    <_>
      <rects>
        <_>
          24 2 36 2 -1.</_>
        <_>
          36 2 12 2 3.</_></rects>
      <tilted>0</tilted></_>
    <_>
      <rects>
        <_>
          24 3 6 3 -1.</_>
        <_>
          26 5 2 3 3.</_></rects>
      <tilted>1</tilted></_>
    <_>
      <rects>
        <_>
          24 5 3 4 -1.</_>
        <_>
          25 5 1 4 3.</_></rects>
      <tilted>0</tilted></_>
    <_>
      <rects>
        <_>
          24 7 9 6 -1.</_>
        <_>
          27 7 3 6 3.</_></rects>
      <tilted>0</tilted></_>
    <_>
      <rects>
        <_>
          24 9 1 2 -1.</_>
        <_>
          24 10 1 1 2.</_></rects>
      <tilted>0</tilted></_>
    <_>
      <rects>
        <_>
          24 9 6 4 -1.</_>
        <_>
          26 9 2 4 3.</_></rects>
      <tilted>0</tilted></_>
    <_>
      <rects>
        <_>
          24 9 12 3 -1.</_>
        <_>
          28 9 4 3 3.</_></rects>
      <tilted>0</tilted></_>
    <_>
      <rects>
        <_>
          24 10 13 4 -1.</_>
        <_>
          24 11 13 2 2.</_></rects>
      <tilted>0</tilted></_>
    <_>
      <rects>
        <_>
          24 11 4 4 -1.</_>
        <_>
          24 12 4 2 2.</_></rects>
      <tilted>0</tilted></_>
    <_>
      <rects>
        <_>
          25 0 3 17 -1.</_>
        <_>
          26 1 1 17 3.</_></rects>
      <tilted>1</tilted></_>
    <_>
      <rects>
        <_>
          25 0 4 13 -1.</_>
        <_>
          25 0 2 13 2.</_></rects>
      <tilted>1</tilted></_>
    <_>
      <rects>
        <_>
          25 0 15 15 -1.</_>
        <_>
          30 0 5 15 3.</_></rects>
      <tilted>0</tilted></_>
    <_>
      <rects>
        <_>
          25 7 2 6 -1.</_>
        <_>
          25 10 2 3 2.</_></rects>
      <tilted>0</tilted></_>
    <_>
      <rects>
        <_>
          25 9 3 2 -1.</_>
        <_>
          25 10 3 1 2.</_></rects>
      <tilted>0</tilted></_>
    <_>
      <rects>
        <_>
          25 9 15 2 -1.</_>
        <_>
          25 10 15 1 2.</_></rects>
      <tilted>0</tilted></_>
    <_>
      <rects>
        <_>
          26 2 3 1 -1.</_>
        <_>
          27 2 1 1 3.</_></rects>
      <tilted>0</tilted></_>
    <_>
      <rects>
        <_>
          26 3 12 9 -1.</_>
        <_>
          30 3 4 9 3.</_></rects>
      <tilted>0</tilted></_>
    <_>
      <rects>
        <_>
          26 7 26 7 -1.</_>
        <_>
          39 7 13 7 2.</_></rects>
      <tilted>0</tilted></_>
    <_>
      <rects>
        <_>
          26 9 34 4 -1.</_>
        <_>
          43 9 17 4 2.</_></rects>
      <tilted>0</tilted></_>
    <_>
      <rects>
        <_>
          26 10 3 2 -1.</_>
        <_>
          26 11 3 1 2.</_></rects>
      <tilted>0</tilted></_>
    <_>
      <rects>
        <_>
          26 10 26 2 -1.</_>
        <_>
          39 10 13 2 2.</_></rects>
      <tilted>0</tilted></_>
    <_>
      <rects>
        <_>
          27 0 2 15 -1.</_>
        <_>
          27 0 1 15 2.</_></rects>
      <tilted>1</tilted></_>
    <_>
      <rects>
        <_>
          27 1 9 10 -1.</_>
        <_>
          30 4 3 10 3.</_></rects>
      <tilted>1</tilted></_>
    <_>
      <rects>
        <_>
          27 1 16 2 -1.</_>
        <_>
          31 5 8 2 2.</_></rects>
      <tilted>1</tilted></_>
    <_>
      <rects>
        <_>
          27 12 4 4 -1.</_>
        <_>
          27 13 4 2 2.</_></rects>
      <tilted>0</tilted></_>
    <_>
      <rects>
        <_>
          28 4 21 10 -1.</_>
        <_>
          35 4 7 10 3.</_></rects>
      <tilted>0</tilted></_>
    <_>
      <rects>
        <_>
          28 10 8 1 -1.</_>
        <_>
          32 10 4 1 2.</_></rects>
      <tilted>0</tilted></_>
    <_>
      <rects>
        <_>
          29 0 16 1 -1.</_>
        <_>
          33 0 8 1 2.</_></rects>
      <tilted>0</tilted></_>
    <_>
      <rects>
        <_>
          29 1 30 18 -1.</_>
        <_>
          39 7 10 6 9.</_></rects>
      <tilted>0</tilted></_>
    <_>
      <rects>
        <_>
          29 1 30 12 -1.</_>
        <_>
          39 1 10 12 3.</_></rects>
      <tilted>0</tilted></_>
    <_>
      <rects>
        <_>
          29 5 4 11 -1.</_>
        <_>
          29 5 2 11 2.</_></rects>
      <tilted>1</tilted></_>
    <_>
      <rects>
        <_>
          29 6 30 6 -1.</_>
        <_>
          39 6 10 6 3.</_></rects>
      <tilted>0</tilted></_>
    <_>
      <rects>
        <_>
          29 8 8 3 -1.</_>
        <_>
          31 10 4 3 2.</_></rects>
      <tilted>1</tilted></_>
    <_>
      <rects>
        <_>
          29 11 4 5 -1.</_>
        <_>
          29 11 2 5 2.</_></rects>
      <tilted>1</tilted></_>
    <_>
      <rects>
        <_>
          30 0 3 1 -1.</_>
        <_>
          31 0 1 1 3.</_></rects>
      <tilted>0</tilted></_>
    <_>
      <rects>
        <_>
          30 9 8 1 -1.</_>
        <_>
          34 9 4 1 2.</_></rects>
      <tilted>0</tilted></_>
    <_>
      <rects>
        <_>
          31 9 6 4 -1.</_>
        <_>
          34 9 3 4 2.</_></rects>
      <tilted>0</tilted></_>
    <_>
      <rects>
        <_>
          31 10 16 2 -1.</_>
        <_>
          39 10 8 2 2.</_></rects>
      <tilted>0</tilted></_>
    <_>
      <rects>
        <_>
          31 17 4 3 -1.</_>
        <_>
          32 17 2 3 2.</_></rects>
      <tilted>0</tilted></_>
    <_>
      <rects>
        <_>
          32 2 28 14 -1.</_>
        <_>
          39 2 14 14 2.</_></rects>
      <tilted>0</tilted></_>
    <_>
      <rects>
        <_>
          32 8 3 5 -1.</_>
        <_>
          33 8 1 5 3.</_></rects>
      <tilted>0</tilted></_>
    <_>
      <rects>
        <_>
          32 8 18 3 -1.</_>
        <_>
          41 8 9 3 2.</_></rects>
      <tilted>0</tilted></_>
    <_>
      <rects>
        <_>
          32 9 1 4 -1.</_>
        <_>
          32 9 1 2 2.</_></rects>
      <tilted>1</tilted></_>
    <_>
      <rects>
        <_>
          33 11 22 8 -1.</_>
        <_>
          33 15 22 4 2.</_></rects>
      <tilted>0</tilted></_>
    <_>
      <rects>
        <_>
          34 0 2 4 -1.</_>
        <_>
          34 0 2 2 2.</_></rects>
      <tilted>1</tilted></_>
    <_>
      <rects>
        <_>
          34 0 12 1 -1.</_>
        <_>
          40 0 6 1 2.</_></rects>
      <tilted>0</tilted></_>
    <_>
      <rects>
        <_>
          34 0 16 10 -1.</_>
        <_>
          34 5 16 5 2.</_></rects>
      <tilted>0</tilted></_>
    <_>
      <rects>
        <_>
          34 4 24 11 -1.</_>
        <_>
          42 4 8 11 3.</_></rects>
      <tilted>0</tilted></_>
    <_>
      <rects>
        <_>
          34 5 6 9 -1.</_>
        <_>
          36 5 2 9 3.</_></rects>
      <tilted>0</tilted></_>
    <_>
      <rects>
        <_>
          34 15 3 2 -1.</_>
        <_>
          35 15 1 2 3.</_></rects>
      <tilted>0</tilted></_>
    <_>
      <rects>
        <_>
          35 2 10 6 -1.</_>
        <_>
          33 4 10 2 3.</_></rects>
      <tilted>1</tilted></_>
    <_>
      <rects>
        <_>
          35 6 18 9 -1.</_>
        <_>
          44 6 9 9 2.</_></rects>
      <tilted>0</tilted></_>
    <_>
      <rects>
        <_>
          36 1 6 11 -1.</_>
        <_>
          38 1 2 11 3.</_></rects>
      <tilted>0</tilted></_>
    <_>
      <rects>
        <_>
          36 1 4 4 -1.</_>
        <_>
          36 3 4 2 2.</_></rects>
      <tilted>0</tilted></_>
    <_>
      <rects>
        <_>
          36 3 9 8 -1.</_>
        <_>
          34 5 9 4 2.</_></rects>
      <tilted>1</tilted></_>
    <_>
      <rects>
        <_>
          36 4 24 13 -1.</_>
        <_>
          44 4 8 13 3.</_></rects>
      <tilted>0</tilted></_>
    <_>
      <rects>
        <_>
          36 5 6 8 -1.</_>
        <_>
          38 5 2 8 3.</_></rects>
      <tilted>0</tilted></_>
    <_>
      <rects>
        <_>
          36 5 24 10 -1.</_>
        <_>
          48 5 12 10 2.</_></rects>
      <tilted>0</tilted></_>
    <_>
      <rects>
        <_>
          36 8 4 7 -1.</_>
        <_>
          37 8 2 7 2.</_></rects>
      <tilted>0</tilted></_>
    <_>
      <rects>
        <_>
          36 8 14 6 -1.</_>
        <_>
          36 10 14 2 3.</_></rects>
      <tilted>0</tilted></_>
    <_>
      <rects>
        <_>
          37 6 12 6 -1.</_>
        <_>
          37 8 12 2 3.</_></rects>
      <tilted>0</tilted></_>
    <_>
      <rects>
        <_>
          37 7 17 6 -1.</_>
        <_>
          37 9 17 2 3.</_></rects>
      <tilted>0</tilted></_>
    <_>
      <rects>
        <_>
          37 8 8 3 -1.</_>
        <_>
          37 9 8 1 3.</_></rects>
      <tilted>0</tilted></_>
    <_>
      <rects>
        <_>
          38 0 3 1 -1.</_>
        <_>
          39 0 1 1 3.</_></rects>
      <tilted>0</tilted></_>
    <_>
      <rects>
        <_>
          38 5 6 8 -1.</_>
        <_>
          40 5 2 8 3.</_></rects>
      <tilted>0</tilted></_>
    <_>
      <rects>
        <_>
          38 5 15 6 -1.</_>
        <_>
          38 7 15 2 3.</_></rects>
      <tilted>0</tilted></_>
    <_>
      <rects>
        <_>
          38 8 4 6 -1.</_>
        <_>
          39 9 2 6 2.</_></rects>
      <tilted>1</tilted></_>
    <_>
      <rects>
        <_>
          38 9 14 4 -1.</_>
        <_>
          38 10 14 2 2.</_></rects>
      <tilted>0</tilted></_>
    <_>
      <rects>
        <_>
          39 2 8 9 -1.</_>
        <_>
          41 2 4 9 2.</_></rects>
      <tilted>0</tilted></_>
    <_>
      <rects>
        <_>
          39 6 6 8 -1.</_>
        <_>
          41 8 2 8 3.</_></rects>
      <tilted>1</tilted></_>
    <_>
      <rects>
        <_>
          39 7 12 6 -1.</_>
        <_>
          39 9 12 2 3.</_></rects>
      <tilted>0</tilted></_>
    <_>
      <rects>
        <_>
          39 8 14 4 -1.</_>
        <_>
          39 9 14 2 2.</_></rects>
      <tilted>0</tilted></_>
    <_>
      <rects>
        <_>
          40 0 9 11 -1.</_>
        <_>
          43 3 3 11 3.</_></rects>
      <tilted>1</tilted></_>
    <_>
      <rects>
        <_>
          40 1 10 9 -1.</_>
        <_>
          37 4 10 3 3.</_></rects>
      <tilted>1</tilted></_>
    <_>
      <rects>
        <_>
          40 2 6 16 -1.</_>
        <_>
          42 2 2 16 3.</_></rects>
      <tilted>0</tilted></_>
    <_>
      <rects>
        <_>
          40 2 8 10 -1.</_>
        <_>
          40 2 4 10 2.</_></rects>
      <tilted>1</tilted></_>
    <_>
      <rects>
        <_>
          40 4 6 12 -1.</_>
        <_>
          42 4 2 12 3.</_></rects>
      <tilted>0</tilted></_>
    <_>
      <rects>
        <_>
          40 5 9 6 -1.</_>
        <_>
          38 7 9 2 3.</_></rects>
      <tilted>1</tilted></_>
    <_>
      <rects>
        <_>
          40 6 16 4 -1.</_>
        <_>
          40 7 16 2 2.</_></rects>
      <tilted>0</tilted></_>
    <_>
      <rects>
        <_>
          40 11 17 3 -1.</_>
        <_>
          40 12 17 1 3.</_></rects>
      <tilted>0</tilted></_>
    <_>
      <rects>
        <_>
          40 18 12 2 -1.</_>
        <_>
          44 18 4 2 3.</_></rects>
      <tilted>0</tilted></_>
    <_>
      <rects>
        <_>
          41 4 9 7 -1.</_>
        <_>
          44 7 3 7 3.</_></rects>
      <tilted>1</tilted></_>
    <_>
      <rects>
        <_>
          41 8 9 9 -1.</_>
        <_>
          44 8 3 9 3.</_></rects>
      <tilted>0</tilted></_>
    <_>
      <rects>
        <_>
          41 9 16 6 -1.</_>
        <_>
          41 11 16 2 3.</_></rects>
      <tilted>0</tilted></_>
    <_>
      <rects>
        <_>
          41 10 12 4 -1.</_>
        <_>
          41 11 12 2 2.</_></rects>
      <tilted>0</tilted></_>
    <_>
      <rects>
        <_>
          42 0 17 2 -1.</_>
        <_>
          42 1 17 1 2.</_></rects>
      <tilted>0</tilted></_>
    <_>
      <rects>
        <_>
          42 1 18 7 -1.</_>
        <_>
          51 1 9 7 2.</_></rects>
      <tilted>0</tilted></_>
    <_>
      <rects>
        <_>
          42 6 6 1 -1.</_>
        <_>
          45 6 3 1 2.</_></rects>
      <tilted>0</tilted></_>
    <_>
      <rects>
        <_>
          43 0 11 9 -1.</_>
        <_>
          40 3 11 3 3.</_></rects>
      <tilted>1</tilted></_>
    <_>
      <rects>
        <_>
          43 6 9 5 -1.</_>
        <_>
          46 9 3 5 3.</_></rects>
      <tilted>1</tilted></_>
    <_>
      <rects>
        <_>
          43 17 3 1 -1.</_>
        <_>
          44 17 1 1 3.</_></rects>
      <tilted>0</tilted></_>
    <_>
      <rects>
        <_>
          43 17 12 1 -1.</_>
        <_>
          47 17 4 1 3.</_></rects>
      <tilted>0</tilted></_>
    <_>
      <rects>
        <_>
          44 0 4 10 -1.</_>
        <_>
          45 0 2 10 2.</_></rects>
      <tilted>0</tilted></_>
    <_>
      <rects>
        <_>
          44 0 6 12 -1.</_>
        <_>
          46 2 2 12 3.</_></rects>
      <tilted>1</tilted></_>
    <_>
      <rects>
        <_>
          44 0 9 11 -1.</_>
        <_>
          47 3 3 11 3.</_></rects>
      <tilted>1</tilted></_>
    <_>
      <rects>
        <_>
          44 1 8 11 -1.</_>
        <_>
          46 3 4 11 2.</_></rects>
      <tilted>1</tilted></_>
    <_>
      <rects>
        <_>
          44 1 9 10 -1.</_>
        <_>
          47 4 3 10 3.</_></rects>
      <tilted>1</tilted></_>
    <_>
      <rects>
        <_>
          45 0 3 1 -1.</_>
        <_>
          46 0 1 1 3.</_></rects>
      <tilted>0</tilted></_>
    <_>
      <rects>
        <_>
          45 5 5 2 -1.</_>
        <_>
          45 6 5 1 2.</_></rects>
      <tilted>0</tilted></_>
    <_>
      <rects>
        <_>
          45 18 15 1 -1.</_>
        <_>
          50 18 5 1 3.</_></rects>
      <tilted>0</tilted></_>
    <_>
      <rects>
        <_>
          46 0 3 1 -1.</_>
        <_>
          47 0 1 1 3.</_></rects>
      <tilted>0</tilted></_>
    <_>
      <rects>
        <_>
          46 1 6 17 -1.</_>
        <_>
          49 1 3 17 2.</_></rects>
      <tilted>0</tilted></_>
    <_>
      <rects>
        <_>
          46 18 12 1 -1.</_>
        <_>
          50 18 4 1 3.</_></rects>
      <tilted>0</tilted></_>
    <_>
      <rects>
        <_>
          47 0 6 13 -1.</_>
        <_>
          49 2 2 13 3.</_></rects>
      <tilted>1</tilted></_>
    <_>
      <rects>
        <_>
          47 3 4 4 -1.</_>
        <_>
          49 3 2 4 2.</_></rects>
      <tilted>0</tilted></_>
    <_>
      <rects>
        <_>
          48 0 3 4 -1.</_>
        <_>
          49 0 1 4 3.</_></rects>
      <tilted>0</tilted></_>
    <_>
      <rects>
        <_>
          48 1 3 2 -1.</_>
        <_>
          49 1 1 2 3.</_></rects>
      <tilted>0</tilted></_>
    <_>
      <rects>
        <_>
          49 1 3 7 -1.</_>
        <_>
          50 1 1 7 3.</_></rects>
      <tilted>0</tilted></_>
    <_>
      <rects>
        <_>
          49 3 3 10 -1.</_>
        <_>
          50 4 1 10 3.</_></rects>
      <tilted>1</tilted></_>
    <_>
      <rects>
        <_>
          49 3 6 2 -1.</_>
        <_>
          52 3 3 2 2.</_></rects>
      <tilted>0</tilted></_>
    <_>
      <rects>
        <_>
          49 5 2 15 -1.</_>
        <_>
          50 5 1 15 2.</_></rects>
      <tilted>0</tilted></_>
    <_>
      <rects>
        <_>
          49 17 3 3 -1.</_>
        <_>
          50 17 1 3 3.</_></rects>
      <tilted>0</tilted></_>
    <_>
      <rects>
        <_>
          50 1 9 10 -1.</_>
        <_>
          53 4 3 10 3.</_></rects>
      <tilted>1</tilted></_>
    <_>
      <rects>
        <_>
          51 0 6 12 -1.</_>
        <_>
          54 0 3 12 2.</_></rects>
      <tilted>0</tilted></_>
    <_>
      <rects>
        <_>
          51 6 8 4 -1.</_>
        <_>
          55 6 4 4 2.</_></rects>
      <tilted>0</tilted></_>
    <_>
      <rects>
        <_>
          51 12 8 6 -1.</_>
        <_>
          51 12 4 3 2.</_>
        <_>
          55 15 4 3 2.</_></rects>
      <tilted>0</tilted></_>
    <_>
      <rects>
        <_>
          52 1 8 10 -1.</_>
        <_>
          54 3 4 10 2.</_></rects>
      <tilted>1</tilted></_>
    <_>
      <rects>
        <_>
          52 3 6 4 -1.</_>
        <_>
          52 3 3 4 2.</_></rects>
      <tilted>1</tilted></_>
    <_>
      <rects>
        <_>
          52 17 3 2 -1.</_>
        <_>
          53 17 1 2 3.</_></rects>
      <tilted>0</tilted></_>
    <_>
      <rects>
        <_>
          53 0 4 5 -1.</_>
        <_>
          54 1 2 5 2.</_></rects>
      <tilted>1</tilted></_>
    <_>
      <rects>
        <_>
          55 3 2 14 -1.</_>
        <_>
          55 10 2 7 2.</_></rects>
      <tilted>0</tilted></_>
    <_>
      <rects>
        <_>
          56 0 2 20 -1.</_>
        <_>
          56 5 2 10 2.</_></rects>
      <tilted>0</tilted></_>
    <_>
      <rects>
        <_>
          56 1 2 4 -1.</_>
        <_>
          56 1 1 2 2.</_>
        <_>
          57 3 1 2 2.</_></rects>
      <tilted>0</tilted></_>
    <_>
      <rects>
        <_>
          56 19 3 1 -1.</_>
        <_>
          57 19 1 1 3.</_></rects>
      <tilted>0</tilted></_>
    <_>
      <rects>
        <_>
          57 0 2 18 -1.</_>
        <_>
          57 9 2 9 2.</_></rects>
      <tilted>0</tilted></_>
    <_>
      <rects>
        <_>
          57 3 3 13 -1.</_>
        <_>
          58 3 1 13 3.</_></rects>
      <tilted>0</tilted></_>
    <_>
      <rects>
        <_>
          57 12 3 1 -1.</_>
        <_>
          58 12 1 1 3.</_></rects>
      <tilted>0</tilted></_>
    <_>
      <rects>
        <_>
          58 0 2 12 -1.</_>
        <_>
          58 6 2 6 2.</_></rects>
      <tilted>0</tilted></_>
    <_>
      <rects>
        <_>
          58 4 2 16 -1.</_>
        <_>
          58 12 2 8 2.</_></rects>
      <tilted>0</tilted></_></features></cascade>
</opencv_storage>
